digraph Tree {
node [shape=box] ;
0 [label="BD <= 2.5\ngini = 0.6667\nsamples = 115200\nvalue = [38400, 38400, 38400]\nclass = Low"] ;
1 [label="BD <= 0.5\ngini = 0.432\nsamples = 34560\nvalue = [23962, 10203, 395]\nclass = Low"] ;
0 -> 1 [labeldistance=2.5, labelangle=45, headlabel="True"] ;
2 [label="Classifier <= 5.5\ngini = 0.3326\nsamples = 11520\nvalue = [1920, 9205, 395]\nclass = Med"] ;
1 -> 2 ;
3 [label="Classifier <= 4.5\ngini = 0.5265\nsamples = 5760\nvalue = [1920, 3445, 395]\nclass = Med"] ;
2 -> 3 ;
4 [label="Classifier <= 1.5\ngini = 0.4381\nsamples = 4800\nvalue = [960, 3445, 395]\nclass = Med"] ;
3 -> 4 ;
5 [label="gini = 0.0\nsamples = 1920\nvalue = [0, 1920, 0]\nclass = Med"] ;
4 -> 5 ;
6 [label="Classifier <= 2.5\ngini = 0.5897\nsamples = 2880\nvalue = [960, 1525, 395]\nclass = Med"] ;
4 -> 6 ;
7 [label="gini = 0.0\nsamples = 960\nvalue = [960, 0, 0]\nclass = Low"] ;
6 -> 7 ;
8 [label="Classifier <= 3.5\ngini = 0.3268\nsamples = 1920\nvalue = [0, 1525, 395]\nclass = Med"] ;
6 -> 8 ;
9 [label="MDT <= 1.5\ngini = 0.4843\nsamples = 960\nvalue = [0, 565, 395]\nclass = Med"] ;
8 -> 9 ;
10 [label="MDT <= 0.5\ngini = 0.4114\nsamples = 480\nvalue = [0, 341, 139]\nclass = Med"] ;
9 -> 10 ;
11 [label="IM <= 4.5\ngini = 0.4922\nsamples = 240\nvalue = [0, 105, 135]\nclass = High"] ;
10 -> 11 ;
12 [label="IM <= 3.5\ngini = 0.4978\nsamples = 150\nvalue = [0, 70, 80]\nclass = High"] ;
11 -> 12 ;
13 [label="IM <= 1.5\ngini = 0.4932\nsamples = 120\nvalue = [0, 53, 67]\nclass = High"] ;
12 -> 13 ;
14 [label="IM <= 0.5\ngini = 0.4861\nsamples = 60\nvalue = [0, 25, 35]\nclass = High"] ;
13 -> 14 ;
15 [label="gini = 0.48\nsamples = 30\nvalue = [0, 12, 18]\nclass = High"] ;
14 -> 15 ;
16 [label="gini = 0.4911\nsamples = 30\nvalue = [0, 13, 17]\nclass = High"] ;
14 -> 16 ;
17 [label="IM <= 2.5\ngini = 0.4978\nsamples = 60\nvalue = [0, 28, 32]\nclass = High"] ;
13 -> 17 ;
18 [label="gini = 0.4978\nsamples = 30\nvalue = [0, 14, 16]\nclass = High"] ;
17 -> 18 ;
19 [label="gini = 0.4978\nsamples = 30\nvalue = [0, 14, 16]\nclass = High"] ;
17 -> 19 ;
20 [label="gini = 0.4911\nsamples = 30\nvalue = [0, 17, 13]\nclass = Med"] ;
12 -> 20 ;
21 [label="IM <= 6.5\ngini = 0.4753\nsamples = 90\nvalue = [0, 35, 55]\nclass = High"] ;
11 -> 21 ;
22 [label="IM <= 5.5\ngini = 0.4644\nsamples = 60\nvalue = [0, 22, 38]\nclass = High"] ;
21 -> 22 ;
23 [label="gini = 0.48\nsamples = 30\nvalue = [0, 12, 18]\nclass = High"] ;
22 -> 23 ;
24 [label="gini = 0.4444\nsamples = 30\nvalue = [0, 10, 20]\nclass = High"] ;
22 -> 24 ;
25 [label="gini = 0.4911\nsamples = 30\nvalue = [0, 13, 17]\nclass = High"] ;
21 -> 25 ;
26 [label="IM <= 5.5\ngini = 0.0328\nsamples = 240\nvalue = [0, 236, 4]\nclass = Med"] ;
10 -> 26 ;
27 [label="gini = 0.0\nsamples = 180\nvalue = [0, 180, 0]\nclass = Med"] ;
26 -> 27 ;
28 [label="IM <= 6.5\ngini = 0.1244\nsamples = 60\nvalue = [0, 56, 4]\nclass = Med"] ;
26 -> 28 ;
29 [label="gini = 0.2311\nsamples = 30\nvalue = [0, 26, 4]\nclass = Med"] ;
28 -> 29 ;
30 [label="gini = 0.0\nsamples = 30\nvalue = [0, 30, 0]\nclass = Med"] ;
28 -> 30 ;
31 [label="MDT <= 2.5\ngini = 0.4978\nsamples = 480\nvalue = [0, 224, 256]\nclass = High"] ;
9 -> 31 ;
32 [label="IM <= 4.5\ngini = 0.4783\nsamples = 240\nvalue = [0, 95, 145]\nclass = High"] ;
31 -> 32 ;
33 [label="IM <= 2.5\ngini = 0.4872\nsamples = 150\nvalue = [0, 63, 87]\nclass = High"] ;
32 -> 33 ;
34 [label="IM <= 0.5\ngini = 0.4644\nsamples = 90\nvalue = [0, 33, 57]\nclass = High"] ;
33 -> 34 ;
35 [label="gini = 0.4644\nsamples = 30\nvalue = [0, 11, 19]\nclass = High"] ;
34 -> 35 ;
36 [label="IM <= 1.5\ngini = 0.4644\nsamples = 60\nvalue = [0, 22, 38]\nclass = High"] ;
34 -> 36 ;
37 [label="gini = 0.4644\nsamples = 30\nvalue = [0, 11, 19]\nclass = High"] ;
36 -> 37 ;
38 [label="gini = 0.4644\nsamples = 30\nvalue = [0, 11, 19]\nclass = High"] ;
36 -> 38 ;
39 [label="IM <= 3.5\ngini = 0.5\nsamples = 60\nvalue = [0, 30, 30]\nclass = Med"] ;
33 -> 39 ;
40 [label="gini = 0.4978\nsamples = 30\nvalue = [0, 14, 16]\nclass = High"] ;
39 -> 40 ;
41 [label="gini = 0.4978\nsamples = 30\nvalue = [0, 16, 14]\nclass = Med"] ;
39 -> 41 ;
42 [label="IM <= 6.5\ngini = 0.4583\nsamples = 90\nvalue = [0, 32, 58]\nclass = High"] ;
32 -> 42 ;
43 [label="IM <= 5.5\ngini = 0.4444\nsamples = 60\nvalue = [0, 20, 40]\nclass = High"] ;
42 -> 43 ;
44 [label="gini = 0.4444\nsamples = 30\nvalue = [0, 10, 20]\nclass = High"] ;
43 -> 44 ;
45 [label="gini = 0.4444\nsamples = 30\nvalue = [0, 10, 20]\nclass = High"] ;
43 -> 45 ;
46 [label="gini = 0.48\nsamples = 30\nvalue = [0, 12, 18]\nclass = High"] ;
42 -> 46 ;
47 [label="IM <= 2.5\ngini = 0.4972\nsamples = 240\nvalue = [0, 129, 111]\nclass = Med"] ;
31 -> 47 ;
48 [label="IM <= 1.5\ngini = 0.4911\nsamples = 90\nvalue = [0, 39, 51]\nclass = High"] ;
47 -> 48 ;
49 [label="IM <= 0.5\ngini = 0.5\nsamples = 60\nvalue = [0, 30, 30]\nclass = Med"] ;
48 -> 49 ;
50 [label="gini = 0.4978\nsamples = 30\nvalue = [0, 16, 14]\nclass = Med"] ;
49 -> 50 ;
51 [label="gini = 0.4978\nsamples = 30\nvalue = [0, 14, 16]\nclass = High"] ;
49 -> 51 ;
52 [label="gini = 0.42\nsamples = 30\nvalue = [0, 9, 21]\nclass = High"] ;
48 -> 52 ;
53 [label="IM <= 4.5\ngini = 0.48\nsamples = 150\nvalue = [0, 90, 60]\nclass = Med"] ;
47 -> 53 ;
54 [label="IM <= 3.5\ngini = 0.2778\nsamples = 60\nvalue = [0, 50, 10]\nclass = Med"] ;
53 -> 54 ;
55 [label="gini = 0.2778\nsamples = 30\nvalue = [0, 25, 5]\nclass = Med"] ;
54 -> 55 ;
56 [label="gini = 0.2778\nsamples = 30\nvalue = [0, 25, 5]\nclass = Med"] ;
54 -> 56 ;
57 [label="IM <= 6.5\ngini = 0.4938\nsamples = 90\nvalue = [0, 40, 50]\nclass = High"] ;
53 -> 57 ;
58 [label="IM <= 5.5\ngini = 0.4328\nsamples = 60\nvalue = [0, 19, 41]\nclass = High"] ;
57 -> 58 ;
59 [label="gini = 0.4644\nsamples = 30\nvalue = [0, 11, 19]\nclass = High"] ;
58 -> 59 ;
60 [label="gini = 0.3911\nsamples = 30\nvalue = [0, 8, 22]\nclass = High"] ;
58 -> 60 ;
61 [label="gini = 0.42\nsamples = 30\nvalue = [0, 21, 9]\nclass = Med"] ;
57 -> 61 ;
62 [label="gini = 0.0\nsamples = 960\nvalue = [0, 960, 0]\nclass = Med"] ;
8 -> 62 ;
63 [label="gini = 0.0\nsamples = 960\nvalue = [960, 0, 0]\nclass = Low"] ;
3 -> 63 ;
64 [label="gini = 0.0\nsamples = 5760\nvalue = [0, 5760, 0]\nclass = Med"] ;
2 -> 64 ;
65 [label="BD <= 1.5\ngini = 0.0829\nsamples = 23040\nvalue = [22042, 998, 0]\nclass = Low"] ;
1 -> 65 ;
66 [label="gini = 0.0\nsamples = 11520\nvalue = [11520, 0, 0]\nclass = Low"] ;
65 -> 66 ;
67 [label="Classifier <= 5.5\ngini = 0.1583\nsamples = 11520\nvalue = [10522, 998, 0]\nclass = Low"] ;
65 -> 67 ;
68 [label="Classifier <= 4.5\ngini = 0.2865\nsamples = 5760\nvalue = [4762, 998, 0]\nclass = Low"] ;
67 -> 68 ;
69 [label="Classifier <= 3.5\ngini = 0.0283\nsamples = 4800\nvalue = [4731, 69, 0]\nclass = Low"] ;
68 -> 69 ;
70 [label="gini = 0.0\nsamples = 3840\nvalue = [3840, 0, 0]\nclass = Low"] ;
69 -> 70 ;
71 [label="MDT <= 2.5\ngini = 0.1334\nsamples = 960\nvalue = [891, 69, 0]\nclass = Low"] ;
69 -> 71 ;
72 [label="IM <= 4.5\ngini = 0.0328\nsamples = 720\nvalue = [708, 12, 0]\nclass = Low"] ;
71 -> 72 ;
73 [label="IM <= 3.5\ngini = 0.0519\nsamples = 450\nvalue = [438, 12, 0]\nclass = Low"] ;
72 -> 73 ;
74 [label="IM <= 1.5\ngini = 0.0381\nsamples = 360\nvalue = [353, 7, 0]\nclass = Low"] ;
73 -> 74 ;
75 [label="MDT <= 0.5\ngini = 0.022\nsamples = 180\nvalue = [178, 2, 0]\nclass = Low"] ;
74 -> 75 ;
76 [label="IM <= 0.5\ngini = 0.0328\nsamples = 60\nvalue = [59, 1, 0]\nclass = Low"] ;
75 -> 76 ;
77 [label="gini = 0.0644\nsamples = 30\nvalue = [29, 1, 0]\nclass = Low"] ;
76 -> 77 ;
78 [label="gini = 0.0\nsamples = 30\nvalue = [30, 0, 0]\nclass = Low"] ;
76 -> 78 ;
79 [label="IM <= 0.5\ngini = 0.0165\nsamples = 120\nvalue = [119, 1, 0]\nclass = Low"] ;
75 -> 79 ;
80 [label="gini = 0.0\nsamples = 60\nvalue = [60, 0, 0]\nclass = Low"] ;
79 -> 80 ;
81 [label="MDT <= 1.5\ngini = 0.0328\nsamples = 60\nvalue = [59, 1, 0]\nclass = Low"] ;
79 -> 81 ;
82 [label="gini = 0.0\nsamples = 30\nvalue = [30, 0, 0]\nclass = Low"] ;
81 -> 82 ;
83 [label="gini = 0.0644\nsamples = 30\nvalue = [29, 1, 0]\nclass = Low"] ;
81 -> 83 ;
84 [label="MDT <= 0.5\ngini = 0.054\nsamples = 180\nvalue = [175, 5, 0]\nclass = Low"] ;
74 -> 84 ;
85 [label="gini = 0.0\nsamples = 60\nvalue = [60, 0, 0]\nclass = Low"] ;
84 -> 85 ;
86 [label="MDT <= 1.5\ngini = 0.0799\nsamples = 120\nvalue = [115, 5, 0]\nclass = Low"] ;
84 -> 86 ;
87 [label="IM <= 2.5\ngini = 0.1244\nsamples = 60\nvalue = [56, 4, 0]\nclass = Low"] ;
86 -> 87 ;
88 [label="gini = 0.1244\nsamples = 30\nvalue = [28, 2, 0]\nclass = Low"] ;
87 -> 88 ;
89 [label="gini = 0.1244\nsamples = 30\nvalue = [28, 2, 0]\nclass = Low"] ;
87 -> 89 ;
90 [label="IM <= 2.5\ngini = 0.0328\nsamples = 60\nvalue = [59, 1, 0]\nclass = Low"] ;
86 -> 90 ;
91 [label="gini = 0.0644\nsamples = 30\nvalue = [29, 1, 0]\nclass = Low"] ;
90 -> 91 ;
92 [label="gini = 0.0\nsamples = 30\nvalue = [30, 0, 0]\nclass = Low"] ;
90 -> 92 ;
93 [label="MDT <= 0.5\ngini = 0.1049\nsamples = 90\nvalue = [85, 5, 0]\nclass = Low"] ;
73 -> 93 ;
94 [label="gini = 0.0644\nsamples = 30\nvalue = [29, 1, 0]\nclass = Low"] ;
93 -> 94 ;
95 [label="MDT <= 1.5\ngini = 0.1244\nsamples = 60\nvalue = [56, 4, 0]\nclass = Low"] ;
93 -> 95 ;
96 [label="gini = 0.18\nsamples = 30\nvalue = [27, 3, 0]\nclass = Low"] ;
95 -> 96 ;
97 [label="gini = 0.0644\nsamples = 30\nvalue = [29, 1, 0]\nclass = Low"] ;
95 -> 97 ;
98 [label="gini = 0.0\nsamples = 270\nvalue = [270, 0, 0]\nclass = Low"] ;
72 -> 98 ;
99 [label="IM <= 0.5\ngini = 0.3622\nsamples = 240\nvalue = [183, 57, 0]\nclass = Low"] ;
71 -> 99 ;
100 [label="gini = 0.4644\nsamples = 30\nvalue = [19, 11, 0]\nclass = Low"] ;
99 -> 100 ;
101 [label="IM <= 2.5\ngini = 0.3421\nsamples = 210\nvalue = [164, 46, 0]\nclass = Low"] ;
99 -> 101 ;
102 [label="IM <= 1.5\ngini = 0.2061\nsamples = 60\nvalue = [53, 7, 0]\nclass = Low"] ;
101 -> 102 ;
103 [label="gini = 0.3578\nsamples = 30\nvalue = [23, 7, 0]\nclass = Low"] ;
102 -> 103 ;
104 [label="gini = 0.0\nsamples = 30\nvalue = [30, 0, 0]\nclass = Low"] ;
102 -> 104 ;
105 [label="IM <= 4.5\ngini = 0.3848\nsamples = 150\nvalue = [111, 39, 0]\nclass = Low"] ;
101 -> 105 ;
106 [label="IM <= 3.5\ngini = 0.4328\nsamples = 60\nvalue = [41, 19, 0]\nclass = Low"] ;
105 -> 106 ;
107 [label="gini = 0.3578\nsamples = 30\nvalue = [23, 7, 0]\nclass = Low"] ;
106 -> 107 ;
108 [label="gini = 0.48\nsamples = 30\nvalue = [18, 12, 0]\nclass = Low"] ;
106 -> 108 ;
109 [label="IM <= 6.5\ngini = 0.3457\nsamples = 90\nvalue = [70, 20, 0]\nclass = Low"] ;
105 -> 109 ;
110 [label="IM <= 5.5\ngini = 0.32\nsamples = 60\nvalue = [48, 12, 0]\nclass = Low"] ;
109 -> 110 ;
111 [label="gini = 0.3578\nsamples = 30\nvalue = [23, 7, 0]\nclass = Low"] ;
110 -> 111 ;
112 [label="gini = 0.2778\nsamples = 30\nvalue = [25, 5, 0]\nclass = Low"] ;
110 -> 112 ;
113 [label="gini = 0.3911\nsamples = 30\nvalue = [22, 8, 0]\nclass = Low"] ;
109 -> 113 ;
114 [label="IM <= 2.5\ngini = 0.0625\nsamples = 960\nvalue = [31, 929, 0]\nclass = Med"] ;
68 -> 114 ;
115 [label="IM <= 1.5\ngini = 0.1388\nsamples = 360\nvalue = [27, 333, 0]\nclass = Med"] ;
114 -> 115 ;
116 [label="MDT <= 0.5\ngini = 0.0799\nsamples = 240\nvalue = [10, 230, 0]\nclass = Med"] ;
115 -> 116 ;
117 [label="IM <= 0.5\ngini = 0.2311\nsamples = 60\nvalue = [8, 52, 0]\nclass = Med"] ;
116 -> 117 ;
118 [label="gini = 0.18\nsamples = 30\nvalue = [3, 27, 0]\nclass = Med"] ;
117 -> 118 ;
119 [label="gini = 0.2778\nsamples = 30\nvalue = [5, 25, 0]\nclass = Med"] ;
117 -> 119 ;
120 [label="IM <= 0.5\ngini = 0.022\nsamples = 180\nvalue = [2, 178, 0]\nclass = Med"] ;
116 -> 120 ;
121 [label="gini = 0.0\nsamples = 90\nvalue = [0, 90, 0]\nclass = Med"] ;
120 -> 121 ;
122 [label="MDT <= 1.5\ngini = 0.0435\nsamples = 90\nvalue = [2, 88, 0]\nclass = Med"] ;
120 -> 122 ;
123 [label="gini = 0.0\nsamples = 30\nvalue = [0, 30, 0]\nclass = Med"] ;
122 -> 123 ;
124 [label="MDT <= 2.5\ngini = 0.0644\nsamples = 60\nvalue = [2, 58, 0]\nclass = Med"] ;
122 -> 124 ;
125 [label="gini = 0.1244\nsamples = 30\nvalue = [2, 28, 0]\nclass = Med"] ;
124 -> 125 ;
126 [label="gini = 0.0\nsamples = 30\nvalue = [0, 30, 0]\nclass = Med"] ;
124 -> 126 ;
127 [label="MDT <= 2.5\ngini = 0.2432\nsamples = 120\nvalue = [17, 103, 0]\nclass = Med"] ;
115 -> 127 ;
128 [label="MDT <= 0.5\ngini = 0.1244\nsamples = 90\nvalue = [6, 84, 0]\nclass = Med"] ;
127 -> 128 ;
129 [label="gini = 0.2778\nsamples = 30\nvalue = [5, 25, 0]\nclass = Med"] ;
128 -> 129 ;
130 [label="MDT <= 1.5\ngini = 0.0328\nsamples = 60\nvalue = [1, 59, 0]\nclass = Med"] ;
128 -> 130 ;
131 [label="gini = 0.0\nsamples = 30\nvalue = [0, 30, 0]\nclass = Med"] ;
130 -> 131 ;
132 [label="gini = 0.0644\nsamples = 30\nvalue = [1, 29, 0]\nclass = Med"] ;
130 -> 132 ;
133 [label="gini = 0.4644\nsamples = 30\nvalue = [11, 19, 0]\nclass = Med"] ;
127 -> 133 ;
134 [label="IM <= 4.5\ngini = 0.0132\nsamples = 600\nvalue = [4, 596, 0]\nclass = Med"] ;
114 -> 134 ;
135 [label="gini = 0.0\nsamples = 240\nvalue = [0, 240, 0]\nclass = Med"] ;
134 -> 135 ;
136 [label="IM <= 5.5\ngini = 0.022\nsamples = 360\nvalue = [4, 356, 0]\nclass = Med"] ;
134 -> 136 ;
137 [label="MDT <= 2.5\ngini = 0.0644\nsamples = 120\nvalue = [4, 116, 0]\nclass = Med"] ;
136 -> 137 ;
138 [label="MDT <= 0.5\ngini = 0.0849\nsamples = 90\nvalue = [4, 86, 0]\nclass = Med"] ;
137 -> 138 ;
139 [label="gini = 0.1244\nsamples = 30\nvalue = [2, 28, 0]\nclass = Med"] ;
138 -> 139 ;
140 [label="MDT <= 1.5\ngini = 0.0644\nsamples = 60\nvalue = [2, 58, 0]\nclass = Med"] ;
138 -> 140 ;
141 [label="gini = 0.0\nsamples = 30\nvalue = [0, 30, 0]\nclass = Med"] ;
140 -> 141 ;
142 [label="gini = 0.1244\nsamples = 30\nvalue = [2, 28, 0]\nclass = Med"] ;
140 -> 142 ;
143 [label="gini = 0.0\nsamples = 30\nvalue = [0, 30, 0]\nclass = Med"] ;
137 -> 143 ;
144 [label="gini = 0.0\nsamples = 240\nvalue = [0, 240, 0]\nclass = Med"] ;
136 -> 144 ;
145 [label="gini = 0.0\nsamples = 5760\nvalue = [5760, 0, 0]\nclass = Low"] ;
67 -> 145 ;
146 [label="BD <= 8.5\ngini = 0.6236\nsamples = 80640\nvalue = [14438, 28197, 38005]\nclass = High"] ;
0 -> 146 [labeldistance=2.5, labelangle=-45, headlabel="False"] ;
147 [label="BD <= 5.5\ngini = 0.5295\nsamples = 69120\nvalue = [2918, 28197, 38005]\nclass = High"] ;
146 -> 147 ;
148 [label="BD <= 4.5\ngini = 0.5169\nsamples = 34560\nvalue = [960, 19211, 14389]\nclass = Med"] ;
147 -> 148 ;
149 [label="Classifier <= 2.5\ngini = 0.4968\nsamples = 23040\nvalue = [960, 7691, 14389]\nclass = High"] ;
148 -> 149 ;
150 [label="Classifier <= 1.5\ngini = 0.3166\nsamples = 5760\nvalue = [960, 138, 4662]\nclass = High"] ;
149 -> 150 ;
151 [label="BD <= 3.5\ngini = 0.0433\nsamples = 3840\nvalue = [0, 85, 3755]\nclass = High"] ;
150 -> 151 ;
152 [label="MDT <= 0.5\ngini = 0.0808\nsamples = 1920\nvalue = [0, 81, 1839]\nclass = High"] ;
151 -> 152 ;
153 [label="IM <= 2.5\ngini = 0.1997\nsamples = 480\nvalue = [0, 54, 426]\nclass = High"] ;
152 -> 153 ;
154 [label="gini = 0.0\nsamples = 180\nvalue = [0, 0, 180]\nclass = High"] ;
153 -> 154 ;
155 [label="IM <= 4.5\ngini = 0.2952\nsamples = 300\nvalue = [0, 54, 246]\nclass = High"] ;
153 -> 155 ;
156 [label="IM <= 3.5\ngini = 0.495\nsamples = 120\nvalue = [0, 54, 66]\nclass = High"] ;
155 -> 156 ;
157 [label="Classifier <= 0.5\ngini = 0.4061\nsamples = 60\nvalue = [0, 17, 43]\nclass = High"] ;
156 -> 157 ;
158 [label="gini = 0.42\nsamples = 30\nvalue = [0, 9, 21]\nclass = High"] ;
157 -> 158 ;
159 [label="gini = 0.3911\nsamples = 30\nvalue = [0, 8, 22]\nclass = High"] ;
157 -> 159 ;
160 [label="Classifier <= 0.5\ngini = 0.4728\nsamples = 60\nvalue = [0, 37, 23]\nclass = Med"] ;
156 -> 160 ;
161 [label="gini = 0.48\nsamples = 30\nvalue = [0, 18, 12]\nclass = Med"] ;
160 -> 161 ;
162 [label="gini = 0.4644\nsamples = 30\nvalue = [0, 19, 11]\nclass = Med"] ;
160 -> 162 ;
163 [label="gini = 0.0\nsamples = 180\nvalue = [0, 0, 180]\nclass = High"] ;
155 -> 163 ;
164 [label="MDT <= 2.5\ngini = 0.0368\nsamples = 1440\nvalue = [0, 27, 1413]\nclass = High"] ;
152 -> 164 ;
165 [label="gini = 0.0\nsamples = 960\nvalue = [0, 0, 960]\nclass = High"] ;
164 -> 165 ;
166 [label="IM <= 2.5\ngini = 0.1062\nsamples = 480\nvalue = [0, 27, 453]\nclass = High"] ;
164 -> 166 ;
167 [label="gini = 0.0\nsamples = 180\nvalue = [0, 0, 180]\nclass = High"] ;
166 -> 167 ;
168 [label="IM <= 4.5\ngini = 0.1638\nsamples = 300\nvalue = [0, 27, 273]\nclass = High"] ;
166 -> 168 ;
169 [label="IM <= 3.5\ngini = 0.3488\nsamples = 120\nvalue = [0, 27, 93]\nclass = High"] ;
168 -> 169 ;
170 [label="Classifier <= 0.5\ngini = 0.1528\nsamples = 60\nvalue = [0, 5, 55]\nclass = High"] ;
169 -> 170 ;
171 [label="gini = 0.18\nsamples = 30\nvalue = [0, 3, 27]\nclass = High"] ;
170 -> 171 ;
172 [label="gini = 0.1244\nsamples = 30\nvalue = [0, 2, 28]\nclass = High"] ;
170 -> 172 ;
173 [label="Classifier <= 0.5\ngini = 0.4644\nsamples = 60\nvalue = [0, 22, 38]\nclass = High"] ;
169 -> 173 ;
174 [label="gini = 0.4644\nsamples = 30\nvalue = [0, 11, 19]\nclass = High"] ;
173 -> 174 ;
175 [label="gini = 0.4644\nsamples = 30\nvalue = [0, 11, 19]\nclass = High"] ;
173 -> 175 ;
176 [label="gini = 0.0\nsamples = 180\nvalue = [0, 0, 180]\nclass = High"] ;
168 -> 176 ;
177 [label="IM <= 3.5\ngini = 0.0042\nsamples = 1920\nvalue = [0, 4, 1916]\nclass = High"] ;
151 -> 177 ;
178 [label="gini = 0.0\nsamples = 960\nvalue = [0, 0, 960]\nclass = High"] ;
177 -> 178 ;
179 [label="IM <= 4.5\ngini = 0.0083\nsamples = 960\nvalue = [0, 4, 956]\nclass = High"] ;
177 -> 179 ;
180 [label="MDT <= 1.5\ngini = 0.0328\nsamples = 240\nvalue = [0, 4, 236]\nclass = High"] ;
179 -> 180 ;
181 [label="MDT <= 0.5\ngini = 0.0644\nsamples = 120\nvalue = [0, 4, 116]\nclass = High"] ;
180 -> 181 ;
182 [label="gini = 0.0\nsamples = 60\nvalue = [0, 0, 60]\nclass = High"] ;
181 -> 182 ;
183 [label="Classifier <= 0.5\ngini = 0.1244\nsamples = 60\nvalue = [0, 4, 56]\nclass = High"] ;
181 -> 183 ;
184 [label="gini = 0.1244\nsamples = 30\nvalue = [0, 2, 28]\nclass = High"] ;
183 -> 184 ;
185 [label="gini = 0.1244\nsamples = 30\nvalue = [0, 2, 28]\nclass = High"] ;
183 -> 185 ;
186 [label="gini = 0.0\nsamples = 120\nvalue = [0, 0, 120]\nclass = High"] ;
180 -> 186 ;
187 [label="gini = 0.0\nsamples = 720\nvalue = [0, 0, 720]\nclass = High"] ;
179 -> 187 ;
188 [label="BD <= 3.5\ngini = 0.5261\nsamples = 1920\nvalue = [960, 53, 907]\nclass = Low"] ;
150 -> 188 ;
189 [label="IM <= 4.5\ngini = 0.1043\nsamples = 960\nvalue = [0, 53, 907]\nclass = High"] ;
188 -> 189 ;
190 [label="IM <= 2.5\ngini = 0.1583\nsamples = 600\nvalue = [0, 52, 548]\nclass = High"] ;
189 -> 190 ;
191 [label="MDT <= 1.5\ngini = 0.0435\nsamples = 360\nvalue = [0, 8, 352]\nclass = High"] ;
190 -> 191 ;
192 [label="MDT <= 0.5\ngini = 0.0849\nsamples = 180\nvalue = [0, 8, 172]\nclass = High"] ;
191 -> 192 ;
193 [label="gini = 0.0\nsamples = 90\nvalue = [0, 0, 90]\nclass = High"] ;
192 -> 193 ;
194 [label="IM <= 1.5\ngini = 0.162\nsamples = 90\nvalue = [0, 8, 82]\nclass = High"] ;
192 -> 194 ;
195 [label="IM <= 0.5\ngini = 0.095\nsamples = 60\nvalue = [0, 3, 57]\nclass = High"] ;
194 -> 195 ;
196 [label="gini = 0.1244\nsamples = 30\nvalue = [0, 2, 28]\nclass = High"] ;
195 -> 196 ;
197 [label="gini = 0.0644\nsamples = 30\nvalue = [0, 1, 29]\nclass = High"] ;
195 -> 197 ;
198 [label="gini = 0.2778\nsamples = 30\nvalue = [0, 5, 25]\nclass = High"] ;
194 -> 198 ;
199 [label="gini = 0.0\nsamples = 180\nvalue = [0, 0, 180]\nclass = High"] ;
191 -> 199 ;
200 [label="MDT <= 0.5\ngini = 0.2994\nsamples = 240\nvalue = [0, 44, 196]\nclass = High"] ;
190 -> 200 ;
201 [label="IM <= 3.5\ngini = 0.4728\nsamples = 60\nvalue = [0, 23, 37]\nclass = High"] ;
200 -> 201 ;
202 [label="gini = 0.3911\nsamples = 30\nvalue = [0, 8, 22]\nclass = High"] ;
201 -> 202 ;
203 [label="gini = 0.5\nsamples = 30\nvalue = [0, 15, 15]\nclass = Med"] ;
201 -> 203 ;
204 [label="MDT <= 2.5\ngini = 0.2061\nsamples = 180\nvalue = [0, 21, 159]\nclass = High"] ;
200 -> 204 ;
205 [label="gini = 0.0\nsamples = 120\nvalue = [0, 0, 120]\nclass = High"] ;
204 -> 205 ;
206 [label="IM <= 3.5\ngini = 0.455\nsamples = 60\nvalue = [0, 21, 39]\nclass = High"] ;
204 -> 206 ;
207 [label="gini = 0.3578\nsamples = 30\nvalue = [0, 7, 23]\nclass = High"] ;
206 -> 207 ;
208 [label="gini = 0.4978\nsamples = 30\nvalue = [0, 14, 16]\nclass = High"] ;
206 -> 208 ;
209 [label="IM <= 6.5\ngini = 0.0055\nsamples = 360\nvalue = [0, 1, 359]\nclass = High"] ;
189 -> 209 ;
210 [label="gini = 0.0\nsamples = 240\nvalue = [0, 0, 240]\nclass = High"] ;
209 -> 210 ;
211 [label="MDT <= 1.5\ngini = 0.0165\nsamples = 120\nvalue = [0, 1, 119]\nclass = High"] ;
209 -> 211 ;
212 [label="MDT <= 0.5\ngini = 0.0328\nsamples = 60\nvalue = [0, 1, 59]\nclass = High"] ;
211 -> 212 ;
213 [label="gini = 0.0\nsamples = 30\nvalue = [0, 0, 30]\nclass = High"] ;
212 -> 213 ;
214 [label="gini = 0.0644\nsamples = 30\nvalue = [0, 1, 29]\nclass = High"] ;
212 -> 214 ;
215 [label="gini = 0.0\nsamples = 60\nvalue = [0, 0, 60]\nclass = High"] ;
211 -> 215 ;
216 [label="gini = 0.0\nsamples = 960\nvalue = [960, 0, 0]\nclass = Low"] ;
188 -> 216 ;
217 [label="BD <= 3.5\ngini = 0.4921\nsamples = 17280\nvalue = [0, 7553, 9727]\nclass = High"] ;
149 -> 217 ;
218 [label="Classifier <= 8.5\ngini = 0.461\nsamples = 8640\nvalue = [0, 5526, 3114]\nclass = Med"] ;
217 -> 218 ;
219 [label="Classifier <= 3.5\ngini = 0.4998\nsamples = 5760\nvalue = [0, 2822, 2938]\nclass = High"] ;
218 -> 219 ;
220 [label="MDT <= 0.5\ngini = 0.0605\nsamples = 960\nvalue = [0, 930, 30]\nclass = Med"] ;
219 -> 220 ;
221 [label="IM <= 2.5\ngini = 0.1597\nsamples = 240\nvalue = [0, 219, 21]\nclass = Med"] ;
220 -> 221 ;
222 [label="gini = 0.0\nsamples = 90\nvalue = [0, 90, 0]\nclass = Med"] ;
221 -> 222 ;
223 [label="IM <= 4.5\ngini = 0.2408\nsamples = 150\nvalue = [0, 129, 21]\nclass = Med"] ;
221 -> 223 ;
224 [label="IM <= 3.5\ngini = 0.455\nsamples = 60\nvalue = [0, 39, 21]\nclass = Med"] ;
223 -> 224 ;
225 [label="gini = 0.42\nsamples = 30\nvalue = [0, 21, 9]\nclass = Med"] ;
224 -> 225 ;
226 [label="gini = 0.48\nsamples = 30\nvalue = [0, 18, 12]\nclass = Med"] ;
224 -> 226 ;
227 [label="gini = 0.0\nsamples = 90\nvalue = [0, 90, 0]\nclass = Med"] ;
223 -> 227 ;
228 [label="MDT <= 2.5\ngini = 0.0247\nsamples = 720\nvalue = [0, 711, 9]\nclass = Med"] ;
220 -> 228 ;
229 [label="gini = 0.0\nsamples = 480\nvalue = [0, 480, 0]\nclass = Med"] ;
228 -> 229 ;
230 [label="IM <= 2.5\ngini = 0.0722\nsamples = 240\nvalue = [0, 231, 9]\nclass = Med"] ;
228 -> 230 ;
231 [label="gini = 0.0\nsamples = 90\nvalue = [0, 90, 0]\nclass = Med"] ;
230 -> 231 ;
232 [label="IM <= 4.5\ngini = 0.1128\nsamples = 150\nvalue = [0, 141, 9]\nclass = Med"] ;
230 -> 232 ;
233 [label="IM <= 3.5\ngini = 0.255\nsamples = 60\nvalue = [0, 51, 9]\nclass = Med"] ;
232 -> 233 ;
234 [label="gini = 0.2311\nsamples = 30\nvalue = [0, 26, 4]\nclass = Med"] ;
233 -> 234 ;
235 [label="gini = 0.2778\nsamples = 30\nvalue = [0, 25, 5]\nclass = Med"] ;
233 -> 235 ;
236 [label="gini = 0.0\nsamples = 90\nvalue = [0, 90, 0]\nclass = Med"] ;
232 -> 236 ;
237 [label="Classifier <= 5.5\ngini = 0.4776\nsamples = 4800\nvalue = [0, 1892, 2908]\nclass = High"] ;
219 -> 237 ;
238 [label="Classifier <= 4.5\ngini = 0.1691\nsamples = 1920\nvalue = [0, 179, 1741]\nclass = High"] ;
237 -> 238 ;
239 [label="MDT <= 0.5\ngini = 0.0683\nsamples = 960\nvalue = [0, 34, 926]\nclass = High"] ;
238 -> 239 ;
240 [label="IM <= 2.5\ngini = 0.18\nsamples = 240\nvalue = [0, 24, 216]\nclass = High"] ;
239 -> 240 ;
241 [label="gini = 0.0\nsamples = 90\nvalue = [0, 0, 90]\nclass = High"] ;
240 -> 241 ;
242 [label="IM <= 4.5\ngini = 0.2688\nsamples = 150\nvalue = [0, 24, 126]\nclass = High"] ;
240 -> 242 ;
243 [label="IM <= 3.5\ngini = 0.48\nsamples = 60\nvalue = [0, 24, 36]\nclass = High"] ;
242 -> 243 ;
244 [label="gini = 0.3911\nsamples = 30\nvalue = [0, 8, 22]\nclass = High"] ;
243 -> 244 ;
245 [label="gini = 0.4978\nsamples = 30\nvalue = [0, 16, 14]\nclass = Med"] ;
243 -> 245 ;
246 [label="gini = 0.0\nsamples = 90\nvalue = [0, 0, 90]\nclass = High"] ;
242 -> 246 ;
247 [label="MDT <= 2.5\ngini = 0.0274\nsamples = 720\nvalue = [0, 10, 710]\nclass = High"] ;
239 -> 247 ;
248 [label="gini = 0.0\nsamples = 480\nvalue = [0, 0, 480]\nclass = High"] ;
247 -> 248 ;
249 [label="IM <= 2.5\ngini = 0.0799\nsamples = 240\nvalue = [0, 10, 230]\nclass = High"] ;
247 -> 249 ;
250 [label="gini = 0.0\nsamples = 90\nvalue = [0, 0, 90]\nclass = High"] ;
249 -> 250 ;
251 [label="IM <= 4.5\ngini = 0.1244\nsamples = 150\nvalue = [0, 10, 140]\nclass = High"] ;
249 -> 251 ;
252 [label="IM <= 3.5\ngini = 0.2778\nsamples = 60\nvalue = [0, 10, 50]\nclass = High"] ;
251 -> 252 ;
253 [label="gini = 0.1244\nsamples = 30\nvalue = [0, 2, 28]\nclass = High"] ;
252 -> 253 ;
254 [label="gini = 0.3911\nsamples = 30\nvalue = [0, 8, 22]\nclass = High"] ;
252 -> 254 ;
255 [label="gini = 0.0\nsamples = 90\nvalue = [0, 0, 90]\nclass = High"] ;
251 -> 255 ;
256 [label="IM <= 2.5\ngini = 0.2565\nsamples = 960\nvalue = [0, 145, 815]\nclass = High"] ;
238 -> 256 ;
257 [label="MDT <= 1.5\ngini = 0.095\nsamples = 360\nvalue = [0, 18, 342]\nclass = High"] ;
256 -> 257 ;
258 [label="MDT <= 0.5\ngini = 0.18\nsamples = 180\nvalue = [0, 18, 162]\nclass = High"] ;
257 -> 258 ;
259 [label="gini = 0.0\nsamples = 90\nvalue = [0, 0, 90]\nclass = High"] ;
258 -> 259 ;
260 [label="IM <= 0.5\ngini = 0.32\nsamples = 90\nvalue = [0, 18, 72]\nclass = High"] ;
258 -> 260 ;
261 [label="gini = 0.1244\nsamples = 30\nvalue = [0, 2, 28]\nclass = High"] ;
260 -> 261 ;
262 [label="IM <= 1.5\ngini = 0.3911\nsamples = 60\nvalue = [0, 16, 44]\nclass = High"] ;
260 -> 262 ;
263 [label="gini = 0.32\nsamples = 30\nvalue = [0, 6, 24]\nclass = High"] ;
262 -> 263 ;
264 [label="gini = 0.4444\nsamples = 30\nvalue = [0, 10, 20]\nclass = High"] ;
262 -> 264 ;
265 [label="gini = 0.0\nsamples = 180\nvalue = [0, 0, 180]\nclass = High"] ;
257 -> 265 ;
266 [label="IM <= 4.5\ngini = 0.3337\nsamples = 600\nvalue = [0, 127, 473]\nclass = High"] ;
256 -> 266 ;
267 [label="MDT <= 2.5\ngini = 0.4599\nsamples = 240\nvalue = [0, 86, 154]\nclass = High"] ;
266 -> 267 ;
268 [label="MDT <= 0.5\ngini = 0.3859\nsamples = 180\nvalue = [0, 47, 133]\nclass = High"] ;
267 -> 268 ;
269 [label="IM <= 3.5\ngini = 0.4911\nsamples = 60\nvalue = [0, 26, 34]\nclass = High"] ;
268 -> 269 ;
270 [label="gini = 0.4644\nsamples = 30\nvalue = [0, 11, 19]\nclass = High"] ;
269 -> 270 ;
271 [label="gini = 0.5\nsamples = 30\nvalue = [0, 15, 15]\nclass = Med"] ;
269 -> 271 ;
272 [label="MDT <= 1.5\ngini = 0.2887\nsamples = 120\nvalue = [0, 21, 99]\nclass = High"] ;
268 -> 272 ;
273 [label="IM <= 3.5\ngini = 0.18\nsamples = 60\nvalue = [0, 6, 54]\nclass = High"] ;
272 -> 273 ;
274 [label="gini = 0.1244\nsamples = 30\nvalue = [0, 2, 28]\nclass = High"] ;
273 -> 274 ;
275 [label="gini = 0.2311\nsamples = 30\nvalue = [0, 4, 26]\nclass = High"] ;
273 -> 275 ;
276 [label="IM <= 3.5\ngini = 0.375\nsamples = 60\nvalue = [0, 15, 45]\nclass = High"] ;
272 -> 276 ;
277 [label="gini = 0.2778\nsamples = 30\nvalue = [0, 5, 25]\nclass = High"] ;
276 -> 277 ;
278 [label="gini = 0.4444\nsamples = 30\nvalue = [0, 10, 20]\nclass = High"] ;
276 -> 278 ;
279 [label="IM <= 3.5\ngini = 0.455\nsamples = 60\nvalue = [0, 39, 21]\nclass = Med"] ;
267 -> 279 ;
280 [label="gini = 0.4644\nsamples = 30\nvalue = [0, 11, 19]\nclass = High"] ;
279 -> 280 ;
281 [label="gini = 0.1244\nsamples = 30\nvalue = [0, 28, 2]\nclass = Med"] ;
279 -> 281 ;
282 [label="IM <= 6.5\ngini = 0.2018\nsamples = 360\nvalue = [0, 41, 319]\nclass = High"] ;
266 -> 282 ;
283 [label="MDT <= 0.5\ngini = 0.0408\nsamples = 240\nvalue = [0, 5, 235]\nclass = High"] ;
282 -> 283 ;
284 [label="IM <= 5.5\ngini = 0.1244\nsamples = 60\nvalue = [0, 4, 56]\nclass = High"] ;
283 -> 284 ;
285 [label="gini = 0.0\nsamples = 30\nvalue = [0, 0, 30]\nclass = High"] ;
284 -> 285 ;
286 [label="gini = 0.2311\nsamples = 30\nvalue = [0, 4, 26]\nclass = High"] ;
284 -> 286 ;
287 [label="IM <= 5.5\ngini = 0.011\nsamples = 180\nvalue = [0, 1, 179]\nclass = High"] ;
283 -> 287 ;
288 [label="gini = 0.0\nsamples = 90\nvalue = [0, 0, 90]\nclass = High"] ;
287 -> 288 ;
289 [label="MDT <= 1.5\ngini = 0.022\nsamples = 90\nvalue = [0, 1, 89]\nclass = High"] ;
287 -> 289 ;
290 [label="gini = 0.0\nsamples = 30\nvalue = [0, 0, 30]\nclass = High"] ;
289 -> 290 ;
291 [label="MDT <= 2.5\ngini = 0.0328\nsamples = 60\nvalue = [0, 1, 59]\nclass = High"] ;
289 -> 291 ;
292 [label="gini = 0.0644\nsamples = 30\nvalue = [0, 1, 29]\nclass = High"] ;
291 -> 292 ;
293 [label="gini = 0.0\nsamples = 30\nvalue = [0, 0, 30]\nclass = High"] ;
291 -> 293 ;
294 [label="MDT <= 2.5\ngini = 0.42\nsamples = 120\nvalue = [0, 36, 84]\nclass = High"] ;
282 -> 294 ;
295 [label="MDT <= 0.5\ngini = 0.3805\nsamples = 90\nvalue = [0, 23, 67]\nclass = High"] ;
294 -> 295 ;
296 [label="gini = 0.4644\nsamples = 30\nvalue = [0, 11, 19]\nclass = High"] ;
295 -> 296 ;
297 [label="MDT <= 1.5\ngini = 0.32\nsamples = 60\nvalue = [0, 12, 48]\nclass = High"] ;
295 -> 297 ;
298 [label="gini = 0.32\nsamples = 30\nvalue = [0, 6, 24]\nclass = High"] ;
297 -> 298 ;
299 [label="gini = 0.32\nsamples = 30\nvalue = [0, 6, 24]\nclass = High"] ;
297 -> 299 ;
300 [label="gini = 0.4911\nsamples = 30\nvalue = [0, 13, 17]\nclass = High"] ;
294 -> 300 ;
301 [label="Classifier <= 7.5\ngini = 0.482\nsamples = 2880\nvalue = [0, 1713, 1167]\nclass = Med"] ;
237 -> 301 ;
302 [label="Classifier <= 6.5\ngini = 0.2203\nsamples = 1920\nvalue = [0, 1678, 242]\nclass = Med"] ;
301 -> 302 ;
303 [label="MDT <= 0.5\ngini = 0.0206\nsamples = 960\nvalue = [0, 950, 10]\nclass = Med"] ;
302 -> 303 ;
304 [label="IM <= 2.5\ngini = 0.0799\nsamples = 240\nvalue = [0, 230, 10]\nclass = Med"] ;
303 -> 304 ;
305 [label="gini = 0.0\nsamples = 90\nvalue = [0, 90, 0]\nclass = Med"] ;
304 -> 305 ;
306 [label="IM <= 4.5\ngini = 0.1244\nsamples = 150\nvalue = [0, 140, 10]\nclass = Med"] ;
304 -> 306 ;
307 [label="IM <= 3.5\ngini = 0.2778\nsamples = 60\nvalue = [0, 50, 10]\nclass = Med"] ;
306 -> 307 ;
308 [label="gini = 0.2311\nsamples = 30\nvalue = [0, 26, 4]\nclass = Med"] ;
307 -> 308 ;
309 [label="gini = 0.32\nsamples = 30\nvalue = [0, 24, 6]\nclass = Med"] ;
307 -> 309 ;
310 [label="gini = 0.0\nsamples = 90\nvalue = [0, 90, 0]\nclass = Med"] ;
306 -> 310 ;
311 [label="gini = 0.0\nsamples = 720\nvalue = [0, 720, 0]\nclass = Med"] ;
303 -> 311 ;
312 [label="MDT <= 1.5\ngini = 0.3665\nsamples = 960\nvalue = [0, 728, 232]\nclass = Med"] ;
302 -> 312 ;
313 [label="MDT <= 0.5\ngini = 0.3073\nsamples = 480\nvalue = [0, 389, 91]\nclass = Med"] ;
312 -> 313 ;
314 [label="IM <= 4.5\ngini = 0.4097\nsamples = 240\nvalue = [0, 171, 69]\nclass = Med"] ;
313 -> 314 ;
315 [label="IM <= 2.5\ngini = 0.4644\nsamples = 150\nvalue = [0, 95, 55]\nclass = Med"] ;
314 -> 315 ;
316 [label="IM <= 0.5\ngini = 0.42\nsamples = 90\nvalue = [0, 63, 27]\nclass = Med"] ;
315 -> 316 ;
317 [label="gini = 0.42\nsamples = 30\nvalue = [0, 21, 9]\nclass = Med"] ;
316 -> 317 ;
318 [label="IM <= 1.5\ngini = 0.42\nsamples = 60\nvalue = [0, 42, 18]\nclass = Med"] ;
316 -> 318 ;
319 [label="gini = 0.42\nsamples = 30\nvalue = [0, 21, 9]\nclass = Med"] ;
318 -> 319 ;
320 [label="gini = 0.42\nsamples = 30\nvalue = [0, 21, 9]\nclass = Med"] ;
318 -> 320 ;
321 [label="IM <= 3.5\ngini = 0.4978\nsamples = 60\nvalue = [0, 32, 28]\nclass = Med"] ;
315 -> 321 ;
322 [label="gini = 0.4911\nsamples = 30\nvalue = [0, 13, 17]\nclass = High"] ;
321 -> 322 ;
323 [label="gini = 0.4644\nsamples = 30\nvalue = [0, 19, 11]\nclass = Med"] ;
321 -> 323 ;
324 [label="IM <= 5.5\ngini = 0.2627\nsamples = 90\nvalue = [0, 76, 14]\nclass = Med"] ;
314 -> 324 ;
325 [label="gini = 0.32\nsamples = 30\nvalue = [0, 24, 6]\nclass = Med"] ;
324 -> 325 ;
326 [label="IM <= 6.5\ngini = 0.2311\nsamples = 60\nvalue = [0, 52, 8]\nclass = Med"] ;
324 -> 326 ;
327 [label="gini = 0.2311\nsamples = 30\nvalue = [0, 26, 4]\nclass = Med"] ;
326 -> 327 ;
328 [label="gini = 0.2311\nsamples = 30\nvalue = [0, 26, 4]\nclass = Med"] ;
326 -> 328 ;
329 [label="IM <= 1.5\ngini = 0.1665\nsamples = 240\nvalue = [0, 218, 22]\nclass = Med"] ;
313 -> 329 ;
330 [label="IM <= 0.5\ngini = 0.095\nsamples = 60\nvalue = [0, 57, 3]\nclass = Med"] ;
329 -> 330 ;
331 [label="gini = 0.0644\nsamples = 30\nvalue = [0, 29, 1]\nclass = Med"] ;
330 -> 331 ;
332 [label="gini = 0.1244\nsamples = 30\nvalue = [0, 28, 2]\nclass = Med"] ;
330 -> 332 ;
333 [label="IM <= 6.5\ngini = 0.1888\nsamples = 180\nvalue = [0, 161, 19]\nclass = Med"] ;
329 -> 333 ;
334 [label="IM <= 4.5\ngini = 0.201\nsamples = 150\nvalue = [0, 133, 17]\nclass = Med"] ;
333 -> 334 ;
335 [label="IM <= 2.5\ngini = 0.18\nsamples = 90\nvalue = [0, 81, 9]\nclass = Med"] ;
334 -> 335 ;
336 [label="gini = 0.18\nsamples = 30\nvalue = [0, 27, 3]\nclass = Med"] ;
335 -> 336 ;
337 [label="IM <= 3.5\ngini = 0.18\nsamples = 60\nvalue = [0, 54, 6]\nclass = Med"] ;
335 -> 337 ;
338 [label="gini = 0.18\nsamples = 30\nvalue = [0, 27, 3]\nclass = Med"] ;
337 -> 338 ;
339 [label="gini = 0.18\nsamples = 30\nvalue = [0, 27, 3]\nclass = Med"] ;
337 -> 339 ;
340 [label="IM <= 5.5\ngini = 0.2311\nsamples = 60\nvalue = [0, 52, 8]\nclass = Med"] ;
334 -> 340 ;
341 [label="gini = 0.2311\nsamples = 30\nvalue = [0, 26, 4]\nclass = Med"] ;
340 -> 341 ;
342 [label="gini = 0.2311\nsamples = 30\nvalue = [0, 26, 4]\nclass = Med"] ;
340 -> 342 ;
343 [label="gini = 0.1244\nsamples = 30\nvalue = [0, 28, 2]\nclass = Med"] ;
333 -> 343 ;
344 [label="IM <= 0.5\ngini = 0.4149\nsamples = 480\nvalue = [0, 339, 141]\nclass = Med"] ;
312 -> 344 ;
345 [label="MDT <= 2.5\ngini = 0.48\nsamples = 60\nvalue = [0, 36, 24]\nclass = Med"] ;
344 -> 345 ;
346 [label="gini = 0.5\nsamples = 30\nvalue = [0, 15, 15]\nclass = Med"] ;
345 -> 346 ;
347 [label="gini = 0.42\nsamples = 30\nvalue = [0, 21, 9]\nclass = Med"] ;
345 -> 347 ;
348 [label="IM <= 6.5\ngini = 0.4019\nsamples = 420\nvalue = [0, 303, 117]\nclass = Med"] ;
344 -> 348 ;
349 [label="IM <= 2.5\ngini = 0.4132\nsamples = 360\nvalue = [0, 255, 105]\nclass = Med"] ;
348 -> 349 ;
350 [label="MDT <= 2.5\ngini = 0.4328\nsamples = 120\nvalue = [0, 82, 38]\nclass = Med"] ;
349 -> 350 ;
351 [label="IM <= 1.5\ngini = 0.4644\nsamples = 60\nvalue = [0, 38, 22]\nclass = Med"] ;
350 -> 351 ;
352 [label="gini = 0.42\nsamples = 30\nvalue = [0, 21, 9]\nclass = Med"] ;
351 -> 352 ;
353 [label="gini = 0.4911\nsamples = 30\nvalue = [0, 17, 13]\nclass = Med"] ;
351 -> 353 ;
354 [label="IM <= 1.5\ngini = 0.3911\nsamples = 60\nvalue = [0, 44, 16]\nclass = Med"] ;
350 -> 354 ;
355 [label="gini = 0.3911\nsamples = 30\nvalue = [0, 22, 8]\nclass = Med"] ;
354 -> 355 ;
356 [label="gini = 0.3911\nsamples = 30\nvalue = [0, 22, 8]\nclass = Med"] ;
354 -> 356 ;
357 [label="IM <= 3.5\ngini = 0.4025\nsamples = 240\nvalue = [0, 173, 67]\nclass = Med"] ;
349 -> 357 ;
358 [label="MDT <= 2.5\ngini = 0.3394\nsamples = 60\nvalue = [0, 47, 13]\nclass = Med"] ;
357 -> 358 ;
359 [label="gini = 0.3911\nsamples = 30\nvalue = [0, 22, 8]\nclass = Med"] ;
358 -> 359 ;
360 [label="gini = 0.2778\nsamples = 30\nvalue = [0, 25, 5]\nclass = Med"] ;
358 -> 360 ;
361 [label="MDT <= 2.5\ngini = 0.42\nsamples = 180\nvalue = [0, 126, 54]\nclass = Med"] ;
357 -> 361 ;
362 [label="IM <= 4.5\ngini = 0.3911\nsamples = 90\nvalue = [0, 66, 24]\nclass = Med"] ;
361 -> 362 ;
363 [label="gini = 0.32\nsamples = 30\nvalue = [0, 24, 6]\nclass = Med"] ;
362 -> 363 ;
364 [label="IM <= 5.5\ngini = 0.42\nsamples = 60\nvalue = [0, 42, 18]\nclass = Med"] ;
362 -> 364 ;
365 [label="gini = 0.4444\nsamples = 30\nvalue = [0, 20, 10]\nclass = Med"] ;
364 -> 365 ;
366 [label="gini = 0.3911\nsamples = 30\nvalue = [0, 22, 8]\nclass = Med"] ;
364 -> 366 ;
367 [label="IM <= 4.5\ngini = 0.4444\nsamples = 90\nvalue = [0, 60, 30]\nclass = Med"] ;
361 -> 367 ;
368 [label="gini = 0.48\nsamples = 30\nvalue = [0, 18, 12]\nclass = Med"] ;
367 -> 368 ;
369 [label="IM <= 5.5\ngini = 0.42\nsamples = 60\nvalue = [0, 42, 18]\nclass = Med"] ;
367 -> 369 ;
370 [label="gini = 0.3911\nsamples = 30\nvalue = [0, 22, 8]\nclass = Med"] ;
369 -> 370 ;
371 [label="gini = 0.4444\nsamples = 30\nvalue = [0, 20, 10]\nclass = Med"] ;
369 -> 371 ;
372 [label="MDT <= 2.5\ngini = 0.32\nsamples = 60\nvalue = [0, 48, 12]\nclass = Med"] ;
348 -> 372 ;
373 [label="gini = 0.3578\nsamples = 30\nvalue = [0, 23, 7]\nclass = Med"] ;
372 -> 373 ;
374 [label="gini = 0.2778\nsamples = 30\nvalue = [0, 25, 5]\nclass = Med"] ;
372 -> 374 ;
375 [label="IM <= 4.5\ngini = 0.0703\nsamples = 960\nvalue = [0, 35, 925]\nclass = High"] ;
301 -> 375 ;
376 [label="IM <= 2.5\ngini = 0.1099\nsamples = 600\nvalue = [0, 35, 565]\nclass = High"] ;
375 -> 376 ;
377 [label="MDT <= 1.5\ngini = 0.0165\nsamples = 360\nvalue = [0, 3, 357]\nclass = High"] ;
376 -> 377 ;
378 [label="MDT <= 0.5\ngini = 0.0328\nsamples = 180\nvalue = [0, 3, 177]\nclass = High"] ;
377 -> 378 ;
379 [label="gini = 0.0\nsamples = 90\nvalue = [0, 0, 90]\nclass = High"] ;
378 -> 379 ;
380 [label="IM <= 0.5\ngini = 0.0644\nsamples = 90\nvalue = [0, 3, 87]\nclass = High"] ;
378 -> 380 ;
381 [label="gini = 0.1244\nsamples = 30\nvalue = [0, 2, 28]\nclass = High"] ;
380 -> 381 ;
382 [label="IM <= 1.5\ngini = 0.0328\nsamples = 60\nvalue = [0, 1, 59]\nclass = High"] ;
380 -> 382 ;
383 [label="gini = 0.0\nsamples = 30\nvalue = [0, 0, 30]\nclass = High"] ;
382 -> 383 ;
384 [label="gini = 0.0644\nsamples = 30\nvalue = [0, 1, 29]\nclass = High"] ;
382 -> 384 ;
385 [label="gini = 0.0\nsamples = 180\nvalue = [0, 0, 180]\nclass = High"] ;
377 -> 385 ;
386 [label="MDT <= 2.5\ngini = 0.2311\nsamples = 240\nvalue = [0, 32, 208]\nclass = High"] ;
376 -> 386 ;
387 [label="MDT <= 0.5\ngini = 0.134\nsamples = 180\nvalue = [0, 13, 167]\nclass = High"] ;
386 -> 387 ;
388 [label="IM <= 3.5\ngini = 0.3394\nsamples = 60\nvalue = [0, 13, 47]\nclass = High"] ;
387 -> 388 ;
389 [label="gini = 0.2778\nsamples = 30\nvalue = [0, 5, 25]\nclass = High"] ;
388 -> 389 ;
390 [label="gini = 0.3911\nsamples = 30\nvalue = [0, 8, 22]\nclass = High"] ;
388 -> 390 ;
391 [label="gini = 0.0\nsamples = 120\nvalue = [0, 0, 120]\nclass = High"] ;
387 -> 391 ;
392 [label="IM <= 3.5\ngini = 0.4328\nsamples = 60\nvalue = [0, 19, 41]\nclass = High"] ;
386 -> 392 ;
393 [label="gini = 0.48\nsamples = 30\nvalue = [0, 12, 18]\nclass = High"] ;
392 -> 393 ;
394 [label="gini = 0.3578\nsamples = 30\nvalue = [0, 7, 23]\nclass = High"] ;
392 -> 394 ;
395 [label="gini = 0.0\nsamples = 360\nvalue = [0, 0, 360]\nclass = High"] ;
375 -> 395 ;
396 [label="MDT <= 0.5\ngini = 0.1148\nsamples = 2880\nvalue = [0, 2704, 176]\nclass = Med"] ;
218 -> 396 ;
397 [label="IM <= 4.5\ngini = 0.2208\nsamples = 720\nvalue = [0, 629, 91]\nclass = Med"] ;
396 -> 397 ;
398 [label="IM <= 2.5\ngini = 0.3036\nsamples = 450\nvalue = [0, 366, 84]\nclass = Med"] ;
397 -> 398 ;
399 [label="Classifier <= 10.5\ngini = 0.1917\nsamples = 270\nvalue = [0, 241, 29]\nclass = Med"] ;
398 -> 399 ;
400 [label="Classifier <= 9.5\ngini = 0.054\nsamples = 180\nvalue = [0, 175, 5]\nclass = Med"] ;
399 -> 400 ;
401 [label="IM <= 0.5\ngini = 0.0849\nsamples = 90\nvalue = [0, 86, 4]\nclass = Med"] ;
400 -> 401 ;
402 [label="gini = 0.0644\nsamples = 30\nvalue = [0, 29, 1]\nclass = Med"] ;
401 -> 402 ;
403 [label="IM <= 1.5\ngini = 0.095\nsamples = 60\nvalue = [0, 57, 3]\nclass = Med"] ;
401 -> 403 ;
404 [label="gini = 0.1244\nsamples = 30\nvalue = [0, 28, 2]\nclass = Med"] ;
403 -> 404 ;
405 [label="gini = 0.0644\nsamples = 30\nvalue = [0, 29, 1]\nclass = Med"] ;
403 -> 405 ;
406 [label="IM <= 1.5\ngini = 0.022\nsamples = 90\nvalue = [0, 89, 1]\nclass = Med"] ;
400 -> 406 ;
407 [label="gini = 0.0\nsamples = 60\nvalue = [0, 60, 0]\nclass = Med"] ;
406 -> 407 ;
408 [label="gini = 0.0644\nsamples = 30\nvalue = [0, 29, 1]\nclass = Med"] ;
406 -> 408 ;
409 [label="IM <= 0.5\ngini = 0.3911\nsamples = 90\nvalue = [0, 66, 24]\nclass = Med"] ;
399 -> 409 ;
410 [label="gini = 0.3911\nsamples = 30\nvalue = [0, 22, 8]\nclass = Med"] ;
409 -> 410 ;
411 [label="IM <= 1.5\ngini = 0.3911\nsamples = 60\nvalue = [0, 44, 16]\nclass = Med"] ;
409 -> 411 ;
412 [label="gini = 0.3911\nsamples = 30\nvalue = [0, 22, 8]\nclass = Med"] ;
411 -> 412 ;
413 [label="gini = 0.3911\nsamples = 30\nvalue = [0, 22, 8]\nclass = Med"] ;
411 -> 413 ;
414 [label="Classifier <= 9.5\ngini = 0.4244\nsamples = 180\nvalue = [0, 125, 55]\nclass = Med"] ;
398 -> 414 ;
415 [label="IM <= 3.5\ngini = 0.495\nsamples = 60\nvalue = [0, 33, 27]\nclass = Med"] ;
414 -> 415 ;
416 [label="gini = 0.4911\nsamples = 30\nvalue = [0, 13, 17]\nclass = High"] ;
415 -> 416 ;
417 [label="gini = 0.4444\nsamples = 30\nvalue = [0, 20, 10]\nclass = Med"] ;
415 -> 417 ;
418 [label="IM <= 3.5\ngini = 0.3578\nsamples = 120\nvalue = [0, 92, 28]\nclass = Med"] ;
414 -> 418 ;
419 [label="Classifier <= 10.5\ngini = 0.42\nsamples = 60\nvalue = [0, 42, 18]\nclass = Med"] ;
418 -> 419 ;
420 [label="gini = 0.3578\nsamples = 30\nvalue = [0, 23, 7]\nclass = Med"] ;
419 -> 420 ;
421 [label="gini = 0.4644\nsamples = 30\nvalue = [0, 19, 11]\nclass = Med"] ;
419 -> 421 ;
422 [label="Classifier <= 10.5\ngini = 0.2778\nsamples = 60\nvalue = [0, 50, 10]\nclass = Med"] ;
418 -> 422 ;
423 [label="gini = 0.2778\nsamples = 30\nvalue = [0, 25, 5]\nclass = Med"] ;
422 -> 423 ;
424 [label="gini = 0.2778\nsamples = 30\nvalue = [0, 25, 5]\nclass = Med"] ;
422 -> 424 ;
425 [label="Classifier <= 10.5\ngini = 0.0505\nsamples = 270\nvalue = [0, 263, 7]\nclass = Med"] ;
397 -> 425 ;
426 [label="IM <= 5.5\ngini = 0.011\nsamples = 180\nvalue = [0, 179, 1]\nclass = Med"] ;
425 -> 426 ;
427 [label="Classifier <= 9.5\ngini = 0.0328\nsamples = 60\nvalue = [0, 59, 1]\nclass = Med"] ;
426 -> 427 ;
428 [label="gini = 0.0644\nsamples = 30\nvalue = [0, 29, 1]\nclass = Med"] ;
427 -> 428 ;
429 [label="gini = 0.0\nsamples = 30\nvalue = [0, 30, 0]\nclass = Med"] ;
427 -> 429 ;
430 [label="gini = 0.0\nsamples = 120\nvalue = [0, 120, 0]\nclass = Med"] ;
426 -> 430 ;
431 [label="IM <= 5.5\ngini = 0.1244\nsamples = 90\nvalue = [0, 84, 6]\nclass = Med"] ;
425 -> 431 ;
432 [label="gini = 0.2311\nsamples = 30\nvalue = [0, 26, 4]\nclass = Med"] ;
431 -> 432 ;
433 [label="IM <= 6.5\ngini = 0.0644\nsamples = 60\nvalue = [0, 58, 2]\nclass = Med"] ;
431 -> 433 ;
434 [label="gini = 0.1244\nsamples = 30\nvalue = [0, 28, 2]\nclass = Med"] ;
433 -> 434 ;
435 [label="gini = 0.0\nsamples = 30\nvalue = [0, 30, 0]\nclass = Med"] ;
433 -> 435 ;
436 [label="Classifier <= 10.5\ngini = 0.0756\nsamples = 2160\nvalue = [0, 2075, 85]\nclass = Med"] ;
396 -> 436 ;
437 [label="MDT <= 2.5\ngini = 0.0328\nsamples = 1440\nvalue = [0, 1416, 24]\nclass = Med"] ;
436 -> 437 ;
438 [label="Classifier <= 9.5\ngini = 0.0104\nsamples = 960\nvalue = [0, 955, 5]\nclass = Med"] ;
437 -> 438 ;
439 [label="IM <= 4.5\ngini = 0.0206\nsamples = 480\nvalue = [0, 475, 5]\nclass = Med"] ;
438 -> 439 ;
440 [label="IM <= 2.5\ngini = 0.0066\nsamples = 300\nvalue = [0, 299, 1]\nclass = Med"] ;
439 -> 440 ;
441 [label="gini = 0.0\nsamples = 180\nvalue = [0, 180, 0]\nclass = Med"] ;
440 -> 441 ;
442 [label="IM <= 3.5\ngini = 0.0165\nsamples = 120\nvalue = [0, 119, 1]\nclass = Med"] ;
440 -> 442 ;
443 [label="MDT <= 1.5\ngini = 0.0328\nsamples = 60\nvalue = [0, 59, 1]\nclass = Med"] ;
442 -> 443 ;
444 [label="gini = 0.0644\nsamples = 30\nvalue = [0, 29, 1]\nclass = Med"] ;
443 -> 444 ;
445 [label="gini = 0.0\nsamples = 30\nvalue = [0, 30, 0]\nclass = Med"] ;
443 -> 445 ;
446 [label="gini = 0.0\nsamples = 60\nvalue = [0, 60, 0]\nclass = Med"] ;
442 -> 446 ;
447 [label="MDT <= 1.5\ngini = 0.0435\nsamples = 180\nvalue = [0, 176, 4]\nclass = Med"] ;
439 -> 447 ;
448 [label="gini = 0.0\nsamples = 90\nvalue = [0, 90, 0]\nclass = Med"] ;
447 -> 448 ;
449 [label="IM <= 6.5\ngini = 0.0849\nsamples = 90\nvalue = [0, 86, 4]\nclass = Med"] ;
447 -> 449 ;
450 [label="IM <= 5.5\ngini = 0.1244\nsamples = 60\nvalue = [0, 56, 4]\nclass = Med"] ;
449 -> 450 ;
451 [label="gini = 0.1244\nsamples = 30\nvalue = [0, 28, 2]\nclass = Med"] ;
450 -> 451 ;
452 [label="gini = 0.1244\nsamples = 30\nvalue = [0, 28, 2]\nclass = Med"] ;
450 -> 452 ;
453 [label="gini = 0.0\nsamples = 30\nvalue = [0, 30, 0]\nclass = Med"] ;
449 -> 453 ;
454 [label="gini = 0.0\nsamples = 480\nvalue = [0, 480, 0]\nclass = Med"] ;
438 -> 454 ;
455 [label="Classifier <= 9.5\ngini = 0.076\nsamples = 480\nvalue = [0, 461, 19]\nclass = Med"] ;
437 -> 455 ;
456 [label="IM <= 2.5\ngini = 0.1316\nsamples = 240\nvalue = [0, 223, 17]\nclass = Med"] ;
455 -> 456 ;
457 [label="IM <= 1.5\ngini = 0.022\nsamples = 90\nvalue = [0, 89, 1]\nclass = Med"] ;
456 -> 457 ;
458 [label="gini = 0.0\nsamples = 60\nvalue = [0, 60, 0]\nclass = Med"] ;
457 -> 458 ;
459 [label="gini = 0.0644\nsamples = 30\nvalue = [0, 29, 1]\nclass = Med"] ;
457 -> 459 ;
460 [label="IM <= 4.5\ngini = 0.1906\nsamples = 150\nvalue = [0, 134, 16]\nclass = Med"] ;
456 -> 460 ;
461 [label="IM <= 3.5\ngini = 0.3578\nsamples = 60\nvalue = [0, 46, 14]\nclass = Med"] ;
460 -> 461 ;
462 [label="gini = 0.32\nsamples = 30\nvalue = [0, 24, 6]\nclass = Med"] ;
461 -> 462 ;
463 [label="gini = 0.3911\nsamples = 30\nvalue = [0, 22, 8]\nclass = Med"] ;
461 -> 463 ;
464 [label="IM <= 6.5\ngini = 0.0435\nsamples = 90\nvalue = [0, 88, 2]\nclass = Med"] ;
460 -> 464 ;
465 [label="IM <= 5.5\ngini = 0.0644\nsamples = 60\nvalue = [0, 58, 2]\nclass = Med"] ;
464 -> 465 ;
466 [label="gini = 0.0644\nsamples = 30\nvalue = [0, 29, 1]\nclass = Med"] ;
465 -> 466 ;
467 [label="gini = 0.0644\nsamples = 30\nvalue = [0, 29, 1]\nclass = Med"] ;
465 -> 467 ;
468 [label="gini = 0.0\nsamples = 30\nvalue = [0, 30, 0]\nclass = Med"] ;
464 -> 468 ;
469 [label="IM <= 3.5\ngini = 0.0165\nsamples = 240\nvalue = [0, 238, 2]\nclass = Med"] ;
455 -> 469 ;
470 [label="gini = 0.0\nsamples = 120\nvalue = [0, 120, 0]\nclass = Med"] ;
469 -> 470 ;
471 [label="IM <= 4.5\ngini = 0.0328\nsamples = 120\nvalue = [0, 118, 2]\nclass = Med"] ;
469 -> 471 ;
472 [label="gini = 0.1244\nsamples = 30\nvalue = [0, 28, 2]\nclass = Med"] ;
471 -> 472 ;
473 [label="gini = 0.0\nsamples = 90\nvalue = [0, 90, 0]\nclass = Med"] ;
471 -> 473 ;
474 [label="MDT <= 2.5\ngini = 0.1551\nsamples = 720\nvalue = [0, 659, 61]\nclass = Med"] ;
436 -> 474 ;
475 [label="MDT <= 1.5\ngini = 0.0799\nsamples = 480\nvalue = [0, 460, 20]\nclass = Med"] ;
474 -> 475 ;
476 [label="IM <= 3.5\ngini = 0.0328\nsamples = 240\nvalue = [0, 236, 4]\nclass = Med"] ;
475 -> 476 ;
477 [label="gini = 0.0\nsamples = 120\nvalue = [0, 120, 0]\nclass = Med"] ;
476 -> 477 ;
478 [label="IM <= 6.5\ngini = 0.0644\nsamples = 120\nvalue = [0, 116, 4]\nclass = Med"] ;
476 -> 478 ;
479 [label="IM <= 4.5\ngini = 0.0849\nsamples = 90\nvalue = [0, 86, 4]\nclass = Med"] ;
478 -> 479 ;
480 [label="gini = 0.0644\nsamples = 30\nvalue = [0, 29, 1]\nclass = Med"] ;
479 -> 480 ;
481 [label="IM <= 5.5\ngini = 0.095\nsamples = 60\nvalue = [0, 57, 3]\nclass = Med"] ;
479 -> 481 ;
482 [label="gini = 0.1244\nsamples = 30\nvalue = [0, 28, 2]\nclass = Med"] ;
481 -> 482 ;
483 [label="gini = 0.0644\nsamples = 30\nvalue = [0, 29, 1]\nclass = Med"] ;
481 -> 483 ;
484 [label="gini = 0.0\nsamples = 30\nvalue = [0, 30, 0]\nclass = Med"] ;
478 -> 484 ;
485 [label="IM <= 5.5\ngini = 0.1244\nsamples = 240\nvalue = [0, 224, 16]\nclass = Med"] ;
475 -> 485 ;
486 [label="IM <= 4.5\ngini = 0.1528\nsamples = 180\nvalue = [0, 165, 15]\nclass = Med"] ;
485 -> 486 ;
487 [label="IM <= 0.5\ngini = 0.1128\nsamples = 150\nvalue = [0, 141, 9]\nclass = Med"] ;
486 -> 487 ;
488 [label="gini = 0.0644\nsamples = 30\nvalue = [0, 29, 1]\nclass = Med"] ;
487 -> 488 ;
489 [label="IM <= 1.5\ngini = 0.1244\nsamples = 120\nvalue = [0, 112, 8]\nclass = Med"] ;
487 -> 489 ;
490 [label="gini = 0.18\nsamples = 30\nvalue = [0, 27, 3]\nclass = Med"] ;
489 -> 490 ;
491 [label="IM <= 2.5\ngini = 0.1049\nsamples = 90\nvalue = [0, 85, 5]\nclass = Med"] ;
489 -> 491 ;
492 [label="gini = 0.1244\nsamples = 30\nvalue = [0, 28, 2]\nclass = Med"] ;
491 -> 492 ;
493 [label="IM <= 3.5\ngini = 0.095\nsamples = 60\nvalue = [0, 57, 3]\nclass = Med"] ;
491 -> 493 ;
494 [label="gini = 0.0644\nsamples = 30\nvalue = [0, 29, 1]\nclass = Med"] ;
493 -> 494 ;
495 [label="gini = 0.1244\nsamples = 30\nvalue = [0, 28, 2]\nclass = Med"] ;
493 -> 495 ;
496 [label="gini = 0.32\nsamples = 30\nvalue = [0, 24, 6]\nclass = Med"] ;
486 -> 496 ;
497 [label="IM <= 6.5\ngini = 0.0328\nsamples = 60\nvalue = [0, 59, 1]\nclass = Med"] ;
485 -> 497 ;
498 [label="gini = 0.0644\nsamples = 30\nvalue = [0, 29, 1]\nclass = Med"] ;
497 -> 498 ;
499 [label="gini = 0.0\nsamples = 30\nvalue = [0, 30, 0]\nclass = Med"] ;
497 -> 499 ;
500 [label="IM <= 2.5\ngini = 0.2833\nsamples = 240\nvalue = [0, 199, 41]\nclass = Med"] ;
474 -> 500 ;
501 [label="IM <= 0.5\ngini = 0.4012\nsamples = 90\nvalue = [0, 65, 25]\nclass = Med"] ;
500 -> 501 ;
502 [label="gini = 0.4444\nsamples = 30\nvalue = [0, 20, 10]\nclass = Med"] ;
501 -> 502 ;
503 [label="IM <= 1.5\ngini = 0.375\nsamples = 60\nvalue = [0, 45, 15]\nclass = Med"] ;
501 -> 503 ;
504 [label="gini = 0.32\nsamples = 30\nvalue = [0, 24, 6]\nclass = Med"] ;
503 -> 504 ;
505 [label="gini = 0.42\nsamples = 30\nvalue = [0, 21, 9]\nclass = Med"] ;
503 -> 505 ;
506 [label="IM <= 3.5\ngini = 0.1906\nsamples = 150\nvalue = [0, 134, 16]\nclass = Med"] ;
500 -> 506 ;
507 [label="gini = 0.0644\nsamples = 30\nvalue = [0, 29, 1]\nclass = Med"] ;
506 -> 507 ;
508 [label="IM <= 5.5\ngini = 0.2188\nsamples = 120\nvalue = [0, 105, 15]\nclass = Med"] ;
506 -> 508 ;
509 [label="IM <= 4.5\ngini = 0.2994\nsamples = 60\nvalue = [0, 49, 11]\nclass = Med"] ;
508 -> 509 ;
510 [label="gini = 0.2311\nsamples = 30\nvalue = [0, 26, 4]\nclass = Med"] ;
509 -> 510 ;
511 [label="gini = 0.3578\nsamples = 30\nvalue = [0, 23, 7]\nclass = Med"] ;
509 -> 511 ;
512 [label="IM <= 6.5\ngini = 0.1244\nsamples = 60\nvalue = [0, 56, 4]\nclass = Med"] ;
508 -> 512 ;
513 [label="gini = 0.1244\nsamples = 30\nvalue = [0, 28, 2]\nclass = Med"] ;
512 -> 513 ;
514 [label="gini = 0.1244\nsamples = 30\nvalue = [0, 28, 2]\nclass = Med"] ;
512 -> 514 ;
515 [label="Classifier <= 5.5\ngini = 0.3591\nsamples = 8640\nvalue = [0, 2027, 6613]\nclass = High"] ;
217 -> 515 ;
516 [label="Classifier <= 4.5\ngini = 0.4967\nsamples = 2880\nvalue = [0, 1323, 1557]\nclass = High"] ;
515 -> 516 ;
517 [label="Classifier <= 3.5\ngini = 0.3066\nsamples = 1920\nvalue = [0, 363, 1557]\nclass = High"] ;
516 -> 517 ;
518 [label="MDT <= 1.5\ngini = 0.4402\nsamples = 960\nvalue = [0, 314, 646]\nclass = High"] ;
517 -> 518 ;
519 [label="MDT <= 0.5\ngini = 0.4994\nsamples = 480\nvalue = [0, 248, 232]\nclass = Med"] ;
518 -> 519 ;
520 [label="IM <= 4.5\ngini = 0.3347\nsamples = 240\nvalue = [0, 51, 189]\nclass = High"] ;
519 -> 520 ;
521 [label="IM <= 3.5\ngini = 0.4399\nsamples = 150\nvalue = [0, 49, 101]\nclass = High"] ;
520 -> 521 ;
522 [label="IM <= 2.5\ngini = 0.3665\nsamples = 120\nvalue = [0, 29, 91]\nclass = High"] ;
521 -> 522 ;
523 [label="IM <= 1.5\ngini = 0.3064\nsamples = 90\nvalue = [0, 17, 73]\nclass = High"] ;
522 -> 523 ;
524 [label="IM <= 0.5\ngini = 0.32\nsamples = 60\nvalue = [0, 12, 48]\nclass = High"] ;
523 -> 524 ;
525 [label="gini = 0.32\nsamples = 30\nvalue = [0, 6, 24]\nclass = High"] ;
524 -> 525 ;
526 [label="gini = 0.32\nsamples = 30\nvalue = [0, 6, 24]\nclass = High"] ;
524 -> 526 ;
527 [label="gini = 0.2778\nsamples = 30\nvalue = [0, 5, 25]\nclass = High"] ;
523 -> 527 ;
528 [label="gini = 0.48\nsamples = 30\nvalue = [0, 12, 18]\nclass = High"] ;
522 -> 528 ;
529 [label="gini = 0.4444\nsamples = 30\nvalue = [0, 20, 10]\nclass = Med"] ;
521 -> 529 ;
530 [label="IM <= 5.5\ngini = 0.0435\nsamples = 90\nvalue = [0, 2, 88]\nclass = High"] ;
520 -> 530 ;
531 [label="gini = 0.0\nsamples = 30\nvalue = [0, 0, 30]\nclass = High"] ;
530 -> 531 ;
532 [label="IM <= 6.5\ngini = 0.0644\nsamples = 60\nvalue = [0, 2, 58]\nclass = High"] ;
530 -> 532 ;
533 [label="gini = 0.0644\nsamples = 30\nvalue = [0, 1, 29]\nclass = High"] ;
532 -> 533 ;
534 [label="gini = 0.0644\nsamples = 30\nvalue = [0, 1, 29]\nclass = High"] ;
532 -> 534 ;
535 [label="IM <= 4.5\ngini = 0.2941\nsamples = 240\nvalue = [0, 197, 43]\nclass = Med"] ;
519 -> 535 ;
536 [label="IM <= 2.5\ngini = 0.1128\nsamples = 150\nvalue = [0, 141, 9]\nclass = Med"] ;
535 -> 536 ;
537 [label="IM <= 0.5\ngini = 0.18\nsamples = 90\nvalue = [0, 81, 9]\nclass = Med"] ;
536 -> 537 ;
538 [label="gini = 0.0\nsamples = 30\nvalue = [0, 30, 0]\nclass = Med"] ;
537 -> 538 ;
539 [label="IM <= 1.5\ngini = 0.255\nsamples = 60\nvalue = [0, 51, 9]\nclass = Med"] ;
537 -> 539 ;
540 [label="gini = 0.2778\nsamples = 30\nvalue = [0, 25, 5]\nclass = Med"] ;
539 -> 540 ;
541 [label="gini = 0.2311\nsamples = 30\nvalue = [0, 26, 4]\nclass = Med"] ;
539 -> 541 ;
542 [label="gini = 0.0\nsamples = 60\nvalue = [0, 60, 0]\nclass = Med"] ;
536 -> 542 ;
543 [label="IM <= 6.5\ngini = 0.4701\nsamples = 90\nvalue = [0, 56, 34]\nclass = Med"] ;
535 -> 543 ;
544 [label="IM <= 5.5\ngini = 0.4911\nsamples = 60\nvalue = [0, 26, 34]\nclass = High"] ;
543 -> 544 ;
545 [label="gini = 0.3911\nsamples = 30\nvalue = [0, 22, 8]\nclass = Med"] ;
544 -> 545 ;
546 [label="gini = 0.2311\nsamples = 30\nvalue = [0, 4, 26]\nclass = High"] ;
544 -> 546 ;
547 [label="gini = 0.0\nsamples = 30\nvalue = [0, 30, 0]\nclass = Med"] ;
543 -> 547 ;
548 [label="IM <= 2.5\ngini = 0.2372\nsamples = 480\nvalue = [0, 66, 414]\nclass = High"] ;
518 -> 548 ;
549 [label="IM <= 1.5\ngini = 0.054\nsamples = 180\nvalue = [0, 5, 175]\nclass = High"] ;
548 -> 549 ;
550 [label="IM <= 0.5\ngini = 0.0799\nsamples = 120\nvalue = [0, 5, 115]\nclass = High"] ;
549 -> 550 ;
551 [label="MDT <= 2.5\ngini = 0.095\nsamples = 60\nvalue = [0, 3, 57]\nclass = High"] ;
550 -> 551 ;
552 [label="gini = 0.0644\nsamples = 30\nvalue = [0, 1, 29]\nclass = High"] ;
551 -> 552 ;
553 [label="gini = 0.1244\nsamples = 30\nvalue = [0, 2, 28]\nclass = High"] ;
551 -> 553 ;
554 [label="MDT <= 2.5\ngini = 0.0644\nsamples = 60\nvalue = [0, 2, 58]\nclass = High"] ;
550 -> 554 ;
555 [label="gini = 0.0644\nsamples = 30\nvalue = [0, 1, 29]\nclass = High"] ;
554 -> 555 ;
556 [label="gini = 0.0644\nsamples = 30\nvalue = [0, 1, 29]\nclass = High"] ;
554 -> 556 ;
557 [label="gini = 0.0\nsamples = 60\nvalue = [0, 0, 60]\nclass = High"] ;
549 -> 557 ;
558 [label="IM <= 4.5\ngini = 0.324\nsamples = 300\nvalue = [0, 61, 239]\nclass = High"] ;
548 -> 558 ;
559 [label="MDT <= 2.5\ngini = 0.4765\nsamples = 120\nvalue = [0, 47, 73]\nclass = High"] ;
558 -> 559 ;
560 [label="IM <= 3.5\ngini = 0.455\nsamples = 60\nvalue = [0, 21, 39]\nclass = High"] ;
559 -> 560 ;
561 [label="gini = 0.42\nsamples = 30\nvalue = [0, 9, 21]\nclass = High"] ;
560 -> 561 ;
562 [label="gini = 0.48\nsamples = 30\nvalue = [0, 12, 18]\nclass = High"] ;
560 -> 562 ;
563 [label="IM <= 3.5\ngini = 0.4911\nsamples = 60\nvalue = [0, 26, 34]\nclass = High"] ;
559 -> 563 ;
564 [label="gini = 0.48\nsamples = 30\nvalue = [0, 12, 18]\nclass = High"] ;
563 -> 564 ;
565 [label="gini = 0.4978\nsamples = 30\nvalue = [0, 14, 16]\nclass = High"] ;
563 -> 565 ;
566 [label="MDT <= 2.5\ngini = 0.1435\nsamples = 180\nvalue = [0, 14, 166]\nclass = High"] ;
558 -> 566 ;
567 [label="IM <= 5.5\ngini = 0.2311\nsamples = 90\nvalue = [0, 12, 78]\nclass = High"] ;
566 -> 567 ;
568 [label="gini = 0.2778\nsamples = 30\nvalue = [0, 5, 25]\nclass = High"] ;
567 -> 568 ;
569 [label="IM <= 6.5\ngini = 0.2061\nsamples = 60\nvalue = [0, 7, 53]\nclass = High"] ;
567 -> 569 ;
570 [label="gini = 0.2311\nsamples = 30\nvalue = [0, 4, 26]\nclass = High"] ;
569 -> 570 ;
571 [label="gini = 0.18\nsamples = 30\nvalue = [0, 3, 27]\nclass = High"] ;
569 -> 571 ;
572 [label="IM <= 5.5\ngini = 0.0435\nsamples = 90\nvalue = [0, 2, 88]\nclass = High"] ;
566 -> 572 ;
573 [label="gini = 0.0644\nsamples = 30\nvalue = [0, 1, 29]\nclass = High"] ;
572 -> 573 ;
574 [label="IM <= 6.5\ngini = 0.0328\nsamples = 60\nvalue = [0, 1, 59]\nclass = High"] ;
572 -> 574 ;
575 [label="gini = 0.0\nsamples = 30\nvalue = [0, 0, 30]\nclass = High"] ;
574 -> 575 ;
576 [label="gini = 0.0644\nsamples = 30\nvalue = [0, 1, 29]\nclass = High"] ;
574 -> 576 ;
577 [label="MDT <= 1.5\ngini = 0.0969\nsamples = 960\nvalue = [0, 49, 911]\nclass = High"] ;
517 -> 577 ;
578 [label="MDT <= 0.5\ngini = 0.1833\nsamples = 480\nvalue = [0, 49, 431]\nclass = High"] ;
577 -> 578 ;
579 [label="gini = 0.0\nsamples = 240\nvalue = [0, 0, 240]\nclass = High"] ;
578 -> 579 ;
580 [label="IM <= 4.5\ngini = 0.325\nsamples = 240\nvalue = [0, 49, 191]\nclass = High"] ;
578 -> 580 ;
581 [label="IM <= 2.5\ngini = 0.4352\nsamples = 150\nvalue = [0, 48, 102]\nclass = High"] ;
580 -> 581 ;
582 [label="IM <= 0.5\ngini = 0.1244\nsamples = 90\nvalue = [0, 6, 84]\nclass = High"] ;
581 -> 582 ;
583 [label="gini = 0.18\nsamples = 30\nvalue = [0, 3, 27]\nclass = High"] ;
582 -> 583 ;
584 [label="IM <= 1.5\ngini = 0.095\nsamples = 60\nvalue = [0, 3, 57]\nclass = High"] ;
582 -> 584 ;
585 [label="gini = 0.1244\nsamples = 30\nvalue = [0, 2, 28]\nclass = High"] ;
584 -> 585 ;
586 [label="gini = 0.0644\nsamples = 30\nvalue = [0, 1, 29]\nclass = High"] ;
584 -> 586 ;
587 [label="IM <= 3.5\ngini = 0.42\nsamples = 60\nvalue = [0, 42, 18]\nclass = Med"] ;
581 -> 587 ;
588 [label="gini = 0.4644\nsamples = 30\nvalue = [0, 19, 11]\nclass = Med"] ;
587 -> 588 ;
589 [label="gini = 0.3578\nsamples = 30\nvalue = [0, 23, 7]\nclass = Med"] ;
587 -> 589 ;
590 [label="IM <= 6.5\ngini = 0.022\nsamples = 90\nvalue = [0, 1, 89]\nclass = High"] ;
580 -> 590 ;
591 [label="gini = 0.0\nsamples = 60\nvalue = [0, 0, 60]\nclass = High"] ;
590 -> 591 ;
592 [label="gini = 0.0644\nsamples = 30\nvalue = [0, 1, 29]\nclass = High"] ;
590 -> 592 ;
593 [label="gini = 0.0\nsamples = 480\nvalue = [0, 0, 480]\nclass = High"] ;
577 -> 593 ;
594 [label="gini = 0.0\nsamples = 960\nvalue = [0, 960, 0]\nclass = Med"] ;
516 -> 594 ;
595 [label="Classifier <= 8.5\ngini = 0.2146\nsamples = 5760\nvalue = [0, 704, 5056]\nclass = High"] ;
515 -> 595 ;
596 [label="MDT <= 1.5\ngini = 0.0527\nsamples = 2880\nvalue = [0, 78, 2802]\nclass = High"] ;
595 -> 596 ;
597 [label="Classifier <= 6.5\ngini = 0.1025\nsamples = 1440\nvalue = [0, 78, 1362]\nclass = High"] ;
596 -> 597 ;
598 [label="IM <= 4.5\ngini = 0.2125\nsamples = 480\nvalue = [0, 58, 422]\nclass = High"] ;
597 -> 598 ;
599 [label="IM <= 2.5\ngini = 0.3119\nsamples = 300\nvalue = [0, 58, 242]\nclass = High"] ;
598 -> 599 ;
600 [label="MDT <= 0.5\ngini = 0.18\nsamples = 180\nvalue = [0, 18, 162]\nclass = High"] ;
599 -> 600 ;
601 [label="IM <= 0.5\ngini = 0.32\nsamples = 90\nvalue = [0, 18, 72]\nclass = High"] ;
600 -> 601 ;
602 [label="gini = 0.32\nsamples = 30\nvalue = [0, 6, 24]\nclass = High"] ;
601 -> 602 ;
603 [label="IM <= 1.5\ngini = 0.32\nsamples = 60\nvalue = [0, 12, 48]\nclass = High"] ;
601 -> 603 ;
604 [label="gini = 0.32\nsamples = 30\nvalue = [0, 6, 24]\nclass = High"] ;
603 -> 604 ;
605 [label="gini = 0.32\nsamples = 30\nvalue = [0, 6, 24]\nclass = High"] ;
603 -> 605 ;
606 [label="gini = 0.0\nsamples = 90\nvalue = [0, 0, 90]\nclass = High"] ;
600 -> 606 ;
607 [label="MDT <= 0.5\ngini = 0.4444\nsamples = 120\nvalue = [0, 40, 80]\nclass = High"] ;
599 -> 607 ;
608 [label="IM <= 3.5\ngini = 0.0644\nsamples = 60\nvalue = [0, 2, 58]\nclass = High"] ;
607 -> 608 ;
609 [label="gini = 0.0\nsamples = 30\nvalue = [0, 0, 30]\nclass = High"] ;
608 -> 609 ;
610 [label="gini = 0.1244\nsamples = 30\nvalue = [0, 2, 28]\nclass = High"] ;
608 -> 610 ;
611 [label="IM <= 3.5\ngini = 0.4644\nsamples = 60\nvalue = [0, 38, 22]\nclass = Med"] ;
607 -> 611 ;
612 [label="gini = 0.4644\nsamples = 30\nvalue = [0, 19, 11]\nclass = Med"] ;
611 -> 612 ;
613 [label="gini = 0.4644\nsamples = 30\nvalue = [0, 19, 11]\nclass = Med"] ;
611 -> 613 ;
614 [label="gini = 0.0\nsamples = 180\nvalue = [0, 0, 180]\nclass = High"] ;
598 -> 614 ;
615 [label="MDT <= 0.5\ngini = 0.0408\nsamples = 960\nvalue = [0, 20, 940]\nclass = High"] ;
597 -> 615 ;
616 [label="gini = 0.0\nsamples = 480\nvalue = [0, 0, 480]\nclass = High"] ;
615 -> 616 ;
617 [label="Classifier <= 7.5\ngini = 0.0799\nsamples = 480\nvalue = [0, 20, 460]\nclass = High"] ;
615 -> 617 ;
618 [label="IM <= 4.5\ngini = 0.1528\nsamples = 240\nvalue = [0, 20, 220]\nclass = High"] ;
617 -> 618 ;
619 [label="IM <= 2.5\ngini = 0.2311\nsamples = 150\nvalue = [0, 20, 130]\nclass = High"] ;
618 -> 619 ;
620 [label="IM <= 0.5\ngini = 0.0435\nsamples = 90\nvalue = [0, 2, 88]\nclass = High"] ;
619 -> 620 ;
621 [label="gini = 0.0644\nsamples = 30\nvalue = [0, 1, 29]\nclass = High"] ;
620 -> 621 ;
622 [label="IM <= 1.5\ngini = 0.0328\nsamples = 60\nvalue = [0, 1, 59]\nclass = High"] ;
620 -> 622 ;
623 [label="gini = 0.0\nsamples = 30\nvalue = [0, 0, 30]\nclass = High"] ;
622 -> 623 ;
624 [label="gini = 0.0644\nsamples = 30\nvalue = [0, 1, 29]\nclass = High"] ;
622 -> 624 ;
625 [label="IM <= 3.5\ngini = 0.42\nsamples = 60\nvalue = [0, 18, 42]\nclass = High"] ;
619 -> 625 ;
626 [label="gini = 0.42\nsamples = 30\nvalue = [0, 9, 21]\nclass = High"] ;
625 -> 626 ;
627 [label="gini = 0.42\nsamples = 30\nvalue = [0, 9, 21]\nclass = High"] ;
625 -> 627 ;
628 [label="gini = 0.0\nsamples = 90\nvalue = [0, 0, 90]\nclass = High"] ;
618 -> 628 ;
629 [label="gini = 0.0\nsamples = 240\nvalue = [0, 0, 240]\nclass = High"] ;
617 -> 629 ;
630 [label="gini = 0.0\nsamples = 1440\nvalue = [0, 0, 1440]\nclass = High"] ;
596 -> 630 ;
631 [label="Classifier <= 9.5\ngini = 0.3402\nsamples = 2880\nvalue = [0, 626, 2254]\nclass = High"] ;
595 -> 631 ;
632 [label="IM <= 4.5\ngini = 0.4682\nsamples = 960\nvalue = [0, 601, 359]\nclass = Med"] ;
631 -> 632 ;
633 [label="IM <= 2.5\ngini = 0.4328\nsamples = 600\nvalue = [0, 410, 190]\nclass = Med"] ;
632 -> 633 ;
634 [label="MDT <= 0.5\ngini = 0.4765\nsamples = 360\nvalue = [0, 219, 141]\nclass = Med"] ;
633 -> 634 ;
635 [label="IM <= 1.5\ngini = 0.4938\nsamples = 90\nvalue = [0, 40, 50]\nclass = High"] ;
634 -> 635 ;
636 [label="IM <= 0.5\ngini = 0.5\nsamples = 60\nvalue = [0, 30, 30]\nclass = Med"] ;
635 -> 636 ;
637 [label="gini = 0.4911\nsamples = 30\nvalue = [0, 13, 17]\nclass = High"] ;
636 -> 637 ;
638 [label="gini = 0.4911\nsamples = 30\nvalue = [0, 17, 13]\nclass = Med"] ;
636 -> 638 ;
639 [label="gini = 0.4444\nsamples = 30\nvalue = [0, 10, 20]\nclass = High"] ;
635 -> 639 ;
640 [label="MDT <= 1.5\ngini = 0.4469\nsamples = 270\nvalue = [0, 179, 91]\nclass = Med"] ;
634 -> 640 ;
641 [label="IM <= 0.5\ngini = 0.1049\nsamples = 90\nvalue = [0, 85, 5]\nclass = Med"] ;
640 -> 641 ;
642 [label="gini = 0.2311\nsamples = 30\nvalue = [0, 26, 4]\nclass = Med"] ;
641 -> 642 ;
643 [label="IM <= 1.5\ngini = 0.0328\nsamples = 60\nvalue = [0, 59, 1]\nclass = Med"] ;
641 -> 643 ;
644 [label="gini = 0.0644\nsamples = 30\nvalue = [0, 29, 1]\nclass = Med"] ;
643 -> 644 ;
645 [label="gini = 0.0\nsamples = 30\nvalue = [0, 30, 0]\nclass = Med"] ;
643 -> 645 ;
646 [label="MDT <= 2.5\ngini = 0.499\nsamples = 180\nvalue = [0, 94, 86]\nclass = Med"] ;
640 -> 646 ;
647 [label="IM <= 1.5\ngini = 0.5\nsamples = 90\nvalue = [0, 45, 45]\nclass = Med"] ;
646 -> 647 ;
648 [label="IM <= 0.5\ngini = 0.4994\nsamples = 60\nvalue = [0, 29, 31]\nclass = High"] ;
647 -> 648 ;
649 [label="gini = 0.5\nsamples = 30\nvalue = [0, 15, 15]\nclass = Med"] ;
648 -> 649 ;
650 [label="gini = 0.4978\nsamples = 30\nvalue = [0, 14, 16]\nclass = High"] ;
648 -> 650 ;
651 [label="gini = 0.4978\nsamples = 30\nvalue = [0, 16, 14]\nclass = Med"] ;
647 -> 651 ;
652 [label="IM <= 0.5\ngini = 0.496\nsamples = 90\nvalue = [0, 49, 41]\nclass = Med"] ;
646 -> 652 ;
653 [label="gini = 0.5\nsamples = 30\nvalue = [0, 15, 15]\nclass = Med"] ;
652 -> 653 ;
654 [label="IM <= 1.5\ngini = 0.4911\nsamples = 60\nvalue = [0, 34, 26]\nclass = Med"] ;
652 -> 654 ;
655 [label="gini = 0.48\nsamples = 30\nvalue = [0, 18, 12]\nclass = Med"] ;
654 -> 655 ;
656 [label="gini = 0.4978\nsamples = 30\nvalue = [0, 16, 14]\nclass = Med"] ;
654 -> 656 ;
657 [label="MDT <= 1.5\ngini = 0.325\nsamples = 240\nvalue = [0, 191, 49]\nclass = Med"] ;
633 -> 657 ;
658 [label="MDT <= 0.5\ngini = 0.2188\nsamples = 120\nvalue = [0, 105, 15]\nclass = Med"] ;
657 -> 658 ;
659 [label="IM <= 3.5\ngini = 0.375\nsamples = 60\nvalue = [0, 45, 15]\nclass = Med"] ;
658 -> 659 ;
660 [label="gini = 0.32\nsamples = 30\nvalue = [0, 24, 6]\nclass = Med"] ;
659 -> 660 ;
661 [label="gini = 0.42\nsamples = 30\nvalue = [0, 21, 9]\nclass = Med"] ;
659 -> 661 ;
662 [label="gini = 0.0\nsamples = 60\nvalue = [0, 60, 0]\nclass = Med"] ;
658 -> 662 ;
663 [label="MDT <= 2.5\ngini = 0.4061\nsamples = 120\nvalue = [0, 86, 34]\nclass = Med"] ;
657 -> 663 ;
664 [label="IM <= 3.5\ngini = 0.42\nsamples = 60\nvalue = [0, 42, 18]\nclass = Med"] ;
663 -> 664 ;
665 [label="gini = 0.3911\nsamples = 30\nvalue = [0, 22, 8]\nclass = Med"] ;
664 -> 665 ;
666 [label="gini = 0.4444\nsamples = 30\nvalue = [0, 20, 10]\nclass = Med"] ;
664 -> 666 ;
667 [label="IM <= 3.5\ngini = 0.3911\nsamples = 60\nvalue = [0, 44, 16]\nclass = Med"] ;
663 -> 667 ;
668 [label="gini = 0.4444\nsamples = 30\nvalue = [0, 20, 10]\nclass = Med"] ;
667 -> 668 ;
669 [label="gini = 0.32\nsamples = 30\nvalue = [0, 24, 6]\nclass = Med"] ;
667 -> 669 ;
670 [label="IM <= 6.5\ngini = 0.4981\nsamples = 360\nvalue = [0, 191, 169]\nclass = Med"] ;
632 -> 670 ;
671 [label="MDT <= 1.5\ngini = 0.4997\nsamples = 240\nvalue = [0, 117, 123]\nclass = High"] ;
670 -> 671 ;
672 [label="IM <= 5.5\ngini = 0.4988\nsamples = 120\nvalue = [0, 63, 57]\nclass = Med"] ;
671 -> 672 ;
673 [label="MDT <= 0.5\ngini = 0.48\nsamples = 60\nvalue = [0, 36, 24]\nclass = Med"] ;
672 -> 673 ;
674 [label="gini = 0.4978\nsamples = 30\nvalue = [0, 14, 16]\nclass = High"] ;
673 -> 674 ;
675 [label="gini = 0.3911\nsamples = 30\nvalue = [0, 22, 8]\nclass = Med"] ;
673 -> 675 ;
676 [label="MDT <= 0.5\ngini = 0.495\nsamples = 60\nvalue = [0, 27, 33]\nclass = High"] ;
672 -> 676 ;
677 [label="gini = 0.4978\nsamples = 30\nvalue = [0, 14, 16]\nclass = High"] ;
676 -> 677 ;
678 [label="gini = 0.4911\nsamples = 30\nvalue = [0, 13, 17]\nclass = High"] ;
676 -> 678 ;
679 [label="IM <= 5.5\ngini = 0.495\nsamples = 120\nvalue = [0, 54, 66]\nclass = High"] ;
671 -> 679 ;
680 [label="MDT <= 2.5\ngini = 0.4911\nsamples = 60\nvalue = [0, 26, 34]\nclass = High"] ;
679 -> 680 ;
681 [label="gini = 0.4911\nsamples = 30\nvalue = [0, 13, 17]\nclass = High"] ;
680 -> 681 ;
682 [label="gini = 0.4911\nsamples = 30\nvalue = [0, 13, 17]\nclass = High"] ;
680 -> 682 ;
683 [label="MDT <= 2.5\ngini = 0.4978\nsamples = 60\nvalue = [0, 28, 32]\nclass = High"] ;
679 -> 683 ;
684 [label="gini = 0.4911\nsamples = 30\nvalue = [0, 13, 17]\nclass = High"] ;
683 -> 684 ;
685 [label="gini = 0.5\nsamples = 30\nvalue = [0, 15, 15]\nclass = Med"] ;
683 -> 685 ;
686 [label="MDT <= 0.5\ngini = 0.4728\nsamples = 120\nvalue = [0, 74, 46]\nclass = Med"] ;
670 -> 686 ;
687 [label="gini = 0.5\nsamples = 30\nvalue = [0, 15, 15]\nclass = Med"] ;
686 -> 687 ;
688 [label="MDT <= 1.5\ngini = 0.4516\nsamples = 90\nvalue = [0, 59, 31]\nclass = Med"] ;
686 -> 688 ;
689 [label="gini = 0.2778\nsamples = 30\nvalue = [0, 25, 5]\nclass = Med"] ;
688 -> 689 ;
690 [label="MDT <= 2.5\ngini = 0.4911\nsamples = 60\nvalue = [0, 34, 26]\nclass = Med"] ;
688 -> 690 ;
691 [label="gini = 0.4978\nsamples = 30\nvalue = [0, 14, 16]\nclass = High"] ;
690 -> 691 ;
692 [label="gini = 0.4444\nsamples = 30\nvalue = [0, 20, 10]\nclass = Med"] ;
690 -> 692 ;
693 [label="Classifier <= 10.5\ngini = 0.0257\nsamples = 1920\nvalue = [0, 25, 1895]\nclass = High"] ;
631 -> 693 ;
694 [label="IM <= 2.5\ngini = 0.0507\nsamples = 960\nvalue = [0, 25, 935]\nclass = High"] ;
693 -> 694 ;
695 [label="gini = 0.0\nsamples = 360\nvalue = [0, 0, 360]\nclass = High"] ;
694 -> 695 ;
696 [label="IM <= 4.5\ngini = 0.0799\nsamples = 600\nvalue = [0, 25, 575]\nclass = High"] ;
694 -> 696 ;
697 [label="MDT <= 1.5\ngini = 0.1866\nsamples = 240\nvalue = [0, 25, 215]\nclass = High"] ;
696 -> 697 ;
698 [label="IM <= 3.5\ngini = 0.2665\nsamples = 120\nvalue = [0, 19, 101]\nclass = High"] ;
697 -> 698 ;
699 [label="MDT <= 0.5\ngini = 0.095\nsamples = 60\nvalue = [0, 3, 57]\nclass = High"] ;
698 -> 699 ;
700 [label="gini = 0.0644\nsamples = 30\nvalue = [0, 1, 29]\nclass = High"] ;
699 -> 700 ;
701 [label="gini = 0.1244\nsamples = 30\nvalue = [0, 2, 28]\nclass = High"] ;
699 -> 701 ;
702 [label="MDT <= 0.5\ngini = 0.3911\nsamples = 60\nvalue = [0, 16, 44]\nclass = High"] ;
698 -> 702 ;
703 [label="gini = 0.3578\nsamples = 30\nvalue = [0, 7, 23]\nclass = High"] ;
702 -> 703 ;
704 [label="gini = 0.42\nsamples = 30\nvalue = [0, 9, 21]\nclass = High"] ;
702 -> 704 ;
705 [label="MDT <= 2.5\ngini = 0.095\nsamples = 120\nvalue = [0, 6, 114]\nclass = High"] ;
697 -> 705 ;
706 [label="IM <= 3.5\ngini = 0.1528\nsamples = 60\nvalue = [0, 5, 55]\nclass = High"] ;
705 -> 706 ;
707 [label="gini = 0.1244\nsamples = 30\nvalue = [0, 2, 28]\nclass = High"] ;
706 -> 707 ;
708 [label="gini = 0.18\nsamples = 30\nvalue = [0, 3, 27]\nclass = High"] ;
706 -> 708 ;
709 [label="IM <= 3.5\ngini = 0.0328\nsamples = 60\nvalue = [0, 1, 59]\nclass = High"] ;
705 -> 709 ;
710 [label="gini = 0.0644\nsamples = 30\nvalue = [0, 1, 29]\nclass = High"] ;
709 -> 710 ;
711 [label="gini = 0.0\nsamples = 30\nvalue = [0, 0, 30]\nclass = High"] ;
709 -> 711 ;
712 [label="gini = 0.0\nsamples = 360\nvalue = [0, 0, 360]\nclass = High"] ;
696 -> 712 ;
713 [label="gini = 0.0\nsamples = 960\nvalue = [0, 0, 960]\nclass = High"] ;
693 -> 713 ;
714 [label="gini = 0.0\nsamples = 11520\nvalue = [0, 11520, 0]\nclass = Med"] ;
148 -> 714 ;
715 [label="BD <= 6.5\ngini = 0.4622\nsamples = 34560\nvalue = [1958, 8986, 23616]\nclass = High"] ;
147 -> 715 ;
716 [label="Classifier <= 9.5\ngini = 0.0017\nsamples = 11520\nvalue = [0, 10, 11510]\nclass = High"] ;
715 -> 716 ;
717 [label="gini = 0.0\nsamples = 9600\nvalue = [0, 0, 9600]\nclass = High"] ;
716 -> 717 ;
718 [label="Classifier <= 10.5\ngini = 0.0104\nsamples = 1920\nvalue = [0, 10, 1910]\nclass = High"] ;
716 -> 718 ;
719 [label="MDT <= 0.5\ngini = 0.0206\nsamples = 960\nvalue = [0, 10, 950]\nclass = High"] ;
718 -> 719 ;
720 [label="IM <= 4.5\ngini = 0.0487\nsamples = 240\nvalue = [0, 6, 234]\nclass = High"] ;
719 -> 720 ;
721 [label="IM <= 2.5\ngini = 0.0768\nsamples = 150\nvalue = [0, 6, 144]\nclass = High"] ;
720 -> 721 ;
722 [label="IM <= 1.5\ngini = 0.0435\nsamples = 90\nvalue = [0, 2, 88]\nclass = High"] ;
721 -> 722 ;
723 [label="IM <= 0.5\ngini = 0.0644\nsamples = 60\nvalue = [0, 2, 58]\nclass = High"] ;
722 -> 723 ;
724 [label="gini = 0.0644\nsamples = 30\nvalue = [0, 1, 29]\nclass = High"] ;
723 -> 724 ;
725 [label="gini = 0.0644\nsamples = 30\nvalue = [0, 1, 29]\nclass = High"] ;
723 -> 725 ;
726 [label="gini = 0.0\nsamples = 30\nvalue = [0, 0, 30]\nclass = High"] ;
722 -> 726 ;
727 [label="IM <= 3.5\ngini = 0.1244\nsamples = 60\nvalue = [0, 4, 56]\nclass = High"] ;
721 -> 727 ;
728 [label="gini = 0.18\nsamples = 30\nvalue = [0, 3, 27]\nclass = High"] ;
727 -> 728 ;
729 [label="gini = 0.0644\nsamples = 30\nvalue = [0, 1, 29]\nclass = High"] ;
727 -> 729 ;
730 [label="gini = 0.0\nsamples = 90\nvalue = [0, 0, 90]\nclass = High"] ;
720 -> 730 ;
731 [label="MDT <= 1.5\ngini = 0.011\nsamples = 720\nvalue = [0, 4, 716]\nclass = High"] ;
719 -> 731 ;
732 [label="IM <= 1.5\ngini = 0.0247\nsamples = 240\nvalue = [0, 3, 237]\nclass = High"] ;
731 -> 732 ;
733 [label="IM <= 0.5\ngini = 0.0644\nsamples = 60\nvalue = [0, 2, 58]\nclass = High"] ;
732 -> 733 ;
734 [label="gini = 0.0644\nsamples = 30\nvalue = [0, 1, 29]\nclass = High"] ;
733 -> 734 ;
735 [label="gini = 0.0644\nsamples = 30\nvalue = [0, 1, 29]\nclass = High"] ;
733 -> 735 ;
736 [label="IM <= 4.5\ngini = 0.011\nsamples = 180\nvalue = [0, 1, 179]\nclass = High"] ;
732 -> 736 ;
737 [label="IM <= 3.5\ngini = 0.022\nsamples = 90\nvalue = [0, 1, 89]\nclass = High"] ;
736 -> 737 ;
738 [label="gini = 0.0\nsamples = 60\nvalue = [0, 0, 60]\nclass = High"] ;
737 -> 738 ;
739 [label="gini = 0.0644\nsamples = 30\nvalue = [0, 1, 29]\nclass = High"] ;
737 -> 739 ;
740 [label="gini = 0.0\nsamples = 90\nvalue = [0, 0, 90]\nclass = High"] ;
736 -> 740 ;
741 [label="IM <= 3.5\ngini = 0.0042\nsamples = 480\nvalue = [0, 1, 479]\nclass = High"] ;
731 -> 741 ;
742 [label="IM <= 2.5\ngini = 0.0083\nsamples = 240\nvalue = [0, 1, 239]\nclass = High"] ;
741 -> 742 ;
743 [label="gini = 0.0\nsamples = 180\nvalue = [0, 0, 180]\nclass = High"] ;
742 -> 743 ;
744 [label="MDT <= 2.5\ngini = 0.0328\nsamples = 60\nvalue = [0, 1, 59]\nclass = High"] ;
742 -> 744 ;
745 [label="gini = 0.0644\nsamples = 30\nvalue = [0, 1, 29]\nclass = High"] ;
744 -> 745 ;
746 [label="gini = 0.0\nsamples = 30\nvalue = [0, 0, 30]\nclass = High"] ;
744 -> 746 ;
747 [label="gini = 0.0\nsamples = 240\nvalue = [0, 0, 240]\nclass = High"] ;
741 -> 747 ;
748 [label="gini = 0.0\nsamples = 960\nvalue = [0, 0, 960]\nclass = High"] ;
718 -> 748 ;
749 [label="Classifier <= 1.5\ngini = 0.5649\nsamples = 23040\nvalue = [1958, 8976, 12106]\nclass = High"] ;
715 -> 749 ;
750 [label="BD <= 7.5\ngini = 0.2586\nsamples = 3840\nvalue = [0, 586, 3254]\nclass = High"] ;
749 -> 750 ;
751 [label="MDT <= 1.5\ngini = 0.4162\nsamples = 1920\nvalue = [0, 567, 1353]\nclass = High"] ;
750 -> 751 ;
752 [label="MDT <= 0.5\ngini = 0.4839\nsamples = 960\nvalue = [0, 394, 566]\nclass = High"] ;
751 -> 752 ;
753 [label="IM <= 2.5\ngini = 0.1932\nsamples = 480\nvalue = [0, 52, 428]\nclass = High"] ;
752 -> 753 ;
754 [label="gini = 0.0\nsamples = 180\nvalue = [0, 0, 180]\nclass = High"] ;
753 -> 754 ;
755 [label="IM <= 4.5\ngini = 0.2866\nsamples = 300\nvalue = [0, 52, 248]\nclass = High"] ;
753 -> 755 ;
756 [label="Classifier <= 0.5\ngini = 0.4444\nsamples = 120\nvalue = [0, 40, 80]\nclass = High"] ;
755 -> 756 ;
757 [label="IM <= 3.5\ngini = 0.375\nsamples = 60\nvalue = [0, 15, 45]\nclass = High"] ;
756 -> 757 ;
758 [label="gini = 0.3911\nsamples = 30\nvalue = [0, 8, 22]\nclass = High"] ;
757 -> 758 ;
759 [label="gini = 0.3578\nsamples = 30\nvalue = [0, 7, 23]\nclass = High"] ;
757 -> 759 ;
760 [label="IM <= 3.5\ngini = 0.4861\nsamples = 60\nvalue = [0, 25, 35]\nclass = High"] ;
756 -> 760 ;
761 [label="gini = 0.4444\nsamples = 30\nvalue = [0, 10, 20]\nclass = High"] ;
760 -> 761 ;
762 [label="gini = 0.5\nsamples = 30\nvalue = [0, 15, 15]\nclass = Med"] ;
760 -> 762 ;
763 [label="Classifier <= 0.5\ngini = 0.1244\nsamples = 180\nvalue = [0, 12, 168]\nclass = High"] ;
755 -> 763 ;
764 [label="IM <= 6.5\ngini = 0.0849\nsamples = 90\nvalue = [0, 4, 86]\nclass = High"] ;
763 -> 764 ;
765 [label="IM <= 5.5\ngini = 0.1244\nsamples = 60\nvalue = [0, 4, 56]\nclass = High"] ;
764 -> 765 ;
766 [label="gini = 0.1244\nsamples = 30\nvalue = [0, 2, 28]\nclass = High"] ;
765 -> 766 ;
767 [label="gini = 0.1244\nsamples = 30\nvalue = [0, 2, 28]\nclass = High"] ;
765 -> 767 ;
768 [label="gini = 0.0\nsamples = 30\nvalue = [0, 0, 30]\nclass = High"] ;
764 -> 768 ;
769 [label="IM <= 6.5\ngini = 0.162\nsamples = 90\nvalue = [0, 8, 82]\nclass = High"] ;
763 -> 769 ;
770 [label="IM <= 5.5\ngini = 0.1244\nsamples = 60\nvalue = [0, 4, 56]\nclass = High"] ;
769 -> 770 ;
771 [label="gini = 0.1244\nsamples = 30\nvalue = [0, 2, 28]\nclass = High"] ;
770 -> 771 ;
772 [label="gini = 0.1244\nsamples = 30\nvalue = [0, 2, 28]\nclass = High"] ;
770 -> 772 ;
773 [label="gini = 0.2311\nsamples = 30\nvalue = [0, 4, 26]\nclass = High"] ;
769 -> 773 ;
774 [label="IM <= 2.5\ngini = 0.4097\nsamples = 480\nvalue = [0, 342, 138]\nclass = Med"] ;
752 -> 774 ;
775 [label="Classifier <= 0.5\ngini = 0.054\nsamples = 180\nvalue = [0, 175, 5]\nclass = Med"] ;
774 -> 775 ;
776 [label="IM <= 1.5\ngini = 0.1049\nsamples = 90\nvalue = [0, 85, 5]\nclass = Med"] ;
775 -> 776 ;
777 [label="IM <= 0.5\ngini = 0.1528\nsamples = 60\nvalue = [0, 55, 5]\nclass = Med"] ;
776 -> 777 ;
778 [label="gini = 0.0644\nsamples = 30\nvalue = [0, 29, 1]\nclass = Med"] ;
777 -> 778 ;
779 [label="gini = 0.2311\nsamples = 30\nvalue = [0, 26, 4]\nclass = Med"] ;
777 -> 779 ;
780 [label="gini = 0.0\nsamples = 30\nvalue = [0, 30, 0]\nclass = Med"] ;
776 -> 780 ;
781 [label="gini = 0.0\nsamples = 90\nvalue = [0, 90, 0]\nclass = Med"] ;
775 -> 781 ;
782 [label="IM <= 6.5\ngini = 0.4936\nsamples = 300\nvalue = [0, 167, 133]\nclass = Med"] ;
774 -> 782 ;
783 [label="IM <= 4.5\ngini = 0.4994\nsamples = 240\nvalue = [0, 116, 124]\nclass = High"] ;
782 -> 783 ;
784 [label="Classifier <= 0.5\ngini = 0.4599\nsamples = 120\nvalue = [0, 77, 43]\nclass = Med"] ;
783 -> 784 ;
785 [label="IM <= 3.5\ngini = 0.4978\nsamples = 60\nvalue = [0, 32, 28]\nclass = Med"] ;
784 -> 785 ;
786 [label="gini = 0.5\nsamples = 30\nvalue = [0, 15, 15]\nclass = Med"] ;
785 -> 786 ;
787 [label="gini = 0.4911\nsamples = 30\nvalue = [0, 17, 13]\nclass = Med"] ;
785 -> 787 ;
788 [label="IM <= 3.5\ngini = 0.375\nsamples = 60\nvalue = [0, 45, 15]\nclass = Med"] ;
784 -> 788 ;
789 [label="gini = 0.4444\nsamples = 30\nvalue = [0, 20, 10]\nclass = Med"] ;
788 -> 789 ;
790 [label="gini = 0.2778\nsamples = 30\nvalue = [0, 25, 5]\nclass = Med"] ;
788 -> 790 ;
791 [label="IM <= 5.5\ngini = 0.4387\nsamples = 120\nvalue = [0, 39, 81]\nclass = High"] ;
783 -> 791 ;
792 [label="Classifier <= 0.5\ngini = 0.3394\nsamples = 60\nvalue = [0, 13, 47]\nclass = High"] ;
791 -> 792 ;
793 [label="gini = 0.2311\nsamples = 30\nvalue = [0, 4, 26]\nclass = High"] ;
792 -> 793 ;
794 [label="gini = 0.42\nsamples = 30\nvalue = [0, 9, 21]\nclass = High"] ;
792 -> 794 ;
795 [label="Classifier <= 0.5\ngini = 0.4911\nsamples = 60\nvalue = [0, 26, 34]\nclass = High"] ;
791 -> 795 ;
796 [label="gini = 0.4444\nsamples = 30\nvalue = [0, 10, 20]\nclass = High"] ;
795 -> 796 ;
797 [label="gini = 0.4978\nsamples = 30\nvalue = [0, 16, 14]\nclass = Med"] ;
795 -> 797 ;
798 [label="Classifier <= 0.5\ngini = 0.255\nsamples = 60\nvalue = [0, 51, 9]\nclass = Med"] ;
782 -> 798 ;
799 [label="gini = 0.2778\nsamples = 30\nvalue = [0, 25, 5]\nclass = Med"] ;
798 -> 799 ;
800 [label="gini = 0.2311\nsamples = 30\nvalue = [0, 26, 4]\nclass = Med"] ;
798 -> 800 ;
801 [label="MDT <= 2.5\ngini = 0.2955\nsamples = 960\nvalue = [0, 173, 787]\nclass = High"] ;
751 -> 801 ;
802 [label="IM <= 5.5\ngini = 0.3872\nsamples = 480\nvalue = [0, 126, 354]\nclass = High"] ;
801 -> 802 ;
803 [label="IM <= 4.5\ngini = 0.3694\nsamples = 360\nvalue = [0, 88, 272]\nclass = High"] ;
802 -> 803 ;
804 [label="IM <= 3.5\ngini = 0.3911\nsamples = 300\nvalue = [0, 80, 220]\nclass = High"] ;
803 -> 804 ;
805 [label="IM <= 2.5\ngini = 0.3665\nsamples = 240\nvalue = [0, 58, 182]\nclass = High"] ;
804 -> 805 ;
806 [label="IM <= 1.5\ngini = 0.3518\nsamples = 180\nvalue = [0, 41, 139]\nclass = High"] ;
805 -> 806 ;
807 [label="IM <= 0.5\ngini = 0.3665\nsamples = 120\nvalue = [0, 29, 91]\nclass = High"] ;
806 -> 807 ;
808 [label="Classifier <= 0.5\ngini = 0.375\nsamples = 60\nvalue = [0, 15, 45]\nclass = High"] ;
807 -> 808 ;
809 [label="gini = 0.3911\nsamples = 30\nvalue = [0, 8, 22]\nclass = High"] ;
808 -> 809 ;
810 [label="gini = 0.3578\nsamples = 30\nvalue = [0, 7, 23]\nclass = High"] ;
808 -> 810 ;
811 [label="Classifier <= 0.5\ngini = 0.3578\nsamples = 60\nvalue = [0, 14, 46]\nclass = High"] ;
807 -> 811 ;
812 [label="gini = 0.32\nsamples = 30\nvalue = [0, 6, 24]\nclass = High"] ;
811 -> 812 ;
813 [label="gini = 0.3911\nsamples = 30\nvalue = [0, 8, 22]\nclass = High"] ;
811 -> 813 ;
814 [label="Classifier <= 0.5\ngini = 0.32\nsamples = 60\nvalue = [0, 12, 48]\nclass = High"] ;
806 -> 814 ;
815 [label="gini = 0.32\nsamples = 30\nvalue = [0, 6, 24]\nclass = High"] ;
814 -> 815 ;
816 [label="gini = 0.32\nsamples = 30\nvalue = [0, 6, 24]\nclass = High"] ;
814 -> 816 ;
817 [label="Classifier <= 0.5\ngini = 0.4061\nsamples = 60\nvalue = [0, 17, 43]\nclass = High"] ;
805 -> 817 ;
818 [label="gini = 0.4444\nsamples = 30\nvalue = [0, 10, 20]\nclass = High"] ;
817 -> 818 ;
819 [label="gini = 0.3578\nsamples = 30\nvalue = [0, 7, 23]\nclass = High"] ;
817 -> 819 ;
820 [label="Classifier <= 0.5\ngini = 0.4644\nsamples = 60\nvalue = [0, 22, 38]\nclass = High"] ;
804 -> 820 ;
821 [label="gini = 0.4644\nsamples = 30\nvalue = [0, 11, 19]\nclass = High"] ;
820 -> 821 ;
822 [label="gini = 0.4644\nsamples = 30\nvalue = [0, 11, 19]\nclass = High"] ;
820 -> 822 ;
823 [label="Classifier <= 0.5\ngini = 0.2311\nsamples = 60\nvalue = [0, 8, 52]\nclass = High"] ;
803 -> 823 ;
824 [label="gini = 0.2311\nsamples = 30\nvalue = [0, 4, 26]\nclass = High"] ;
823 -> 824 ;
825 [label="gini = 0.2311\nsamples = 30\nvalue = [0, 4, 26]\nclass = High"] ;
823 -> 825 ;
826 [label="Classifier <= 0.5\ngini = 0.4328\nsamples = 120\nvalue = [0, 38, 82]\nclass = High"] ;
802 -> 826 ;
827 [label="IM <= 6.5\ngini = 0.3911\nsamples = 60\nvalue = [0, 16, 44]\nclass = High"] ;
826 -> 827 ;
828 [label="gini = 0.42\nsamples = 30\nvalue = [0, 9, 21]\nclass = High"] ;
827 -> 828 ;
829 [label="gini = 0.3578\nsamples = 30\nvalue = [0, 7, 23]\nclass = High"] ;
827 -> 829 ;
830 [label="IM <= 6.5\ngini = 0.4644\nsamples = 60\nvalue = [0, 22, 38]\nclass = High"] ;
826 -> 830 ;
831 [label="gini = 0.4444\nsamples = 30\nvalue = [0, 10, 20]\nclass = High"] ;
830 -> 831 ;
832 [label="gini = 0.48\nsamples = 30\nvalue = [0, 12, 18]\nclass = High"] ;
830 -> 832 ;
833 [label="IM <= 2.5\ngini = 0.1767\nsamples = 480\nvalue = [0, 47, 433]\nclass = High"] ;
801 -> 833 ;
834 [label="IM <= 0.5\ngini = 0.011\nsamples = 180\nvalue = [0, 1, 179]\nclass = High"] ;
833 -> 834 ;
835 [label="Classifier <= 0.5\ngini = 0.0328\nsamples = 60\nvalue = [0, 1, 59]\nclass = High"] ;
834 -> 835 ;
836 [label="gini = 0.0\nsamples = 30\nvalue = [0, 0, 30]\nclass = High"] ;
835 -> 836 ;
837 [label="gini = 0.0644\nsamples = 30\nvalue = [0, 1, 29]\nclass = High"] ;
835 -> 837 ;
838 [label="gini = 0.0\nsamples = 120\nvalue = [0, 0, 120]\nclass = High"] ;
834 -> 838 ;
839 [label="IM <= 4.5\ngini = 0.2596\nsamples = 300\nvalue = [0, 46, 254]\nclass = High"] ;
833 -> 839 ;
840 [label="IM <= 3.5\ngini = 0.3394\nsamples = 120\nvalue = [0, 26, 94]\nclass = High"] ;
839 -> 840 ;
841 [label="Classifier <= 0.5\ngini = 0.2994\nsamples = 60\nvalue = [0, 11, 49]\nclass = High"] ;
840 -> 841 ;
842 [label="gini = 0.2778\nsamples = 30\nvalue = [0, 5, 25]\nclass = High"] ;
841 -> 842 ;
843 [label="gini = 0.32\nsamples = 30\nvalue = [0, 6, 24]\nclass = High"] ;
841 -> 843 ;
844 [label="Classifier <= 0.5\ngini = 0.375\nsamples = 60\nvalue = [0, 15, 45]\nclass = High"] ;
840 -> 844 ;
845 [label="gini = 0.4444\nsamples = 30\nvalue = [0, 10, 20]\nclass = High"] ;
844 -> 845 ;
846 [label="gini = 0.2778\nsamples = 30\nvalue = [0, 5, 25]\nclass = High"] ;
844 -> 846 ;
847 [label="Classifier <= 0.5\ngini = 0.1975\nsamples = 180\nvalue = [0, 20, 160]\nclass = High"] ;
839 -> 847 ;
848 [label="IM <= 5.5\ngini = 0.1244\nsamples = 90\nvalue = [0, 6, 84]\nclass = High"] ;
847 -> 848 ;
849 [label="gini = 0.0644\nsamples = 30\nvalue = [0, 1, 29]\nclass = High"] ;
848 -> 849 ;
850 [label="IM <= 6.5\ngini = 0.1528\nsamples = 60\nvalue = [0, 5, 55]\nclass = High"] ;
848 -> 850 ;
851 [label="gini = 0.1244\nsamples = 30\nvalue = [0, 2, 28]\nclass = High"] ;
850 -> 851 ;
852 [label="gini = 0.18\nsamples = 30\nvalue = [0, 3, 27]\nclass = High"] ;
850 -> 852 ;
853 [label="IM <= 5.5\ngini = 0.2627\nsamples = 90\nvalue = [0, 14, 76]\nclass = High"] ;
847 -> 853 ;
854 [label="gini = 0.2311\nsamples = 30\nvalue = [0, 4, 26]\nclass = High"] ;
853 -> 854 ;
855 [label="IM <= 6.5\ngini = 0.2778\nsamples = 60\nvalue = [0, 10, 50]\nclass = High"] ;
853 -> 855 ;
856 [label="gini = 0.2778\nsamples = 30\nvalue = [0, 5, 25]\nclass = High"] ;
855 -> 856 ;
857 [label="gini = 0.2778\nsamples = 30\nvalue = [0, 5, 25]\nclass = High"] ;
855 -> 857 ;
858 [label="MDT <= 2.5\ngini = 0.0196\nsamples = 1920\nvalue = [0, 19, 1901]\nclass = High"] ;
750 -> 858 ;
859 [label="MDT <= 0.5\ngini = 0.0014\nsamples = 1440\nvalue = [0, 1, 1439]\nclass = High"] ;
858 -> 859 ;
860 [label="IM <= 3.5\ngini = 0.0042\nsamples = 480\nvalue = [0, 1, 479]\nclass = High"] ;
859 -> 860 ;
861 [label="gini = 0.0\nsamples = 240\nvalue = [0, 0, 240]\nclass = High"] ;
860 -> 861 ;
862 [label="IM <= 4.5\ngini = 0.0083\nsamples = 240\nvalue = [0, 1, 239]\nclass = High"] ;
860 -> 862 ;
863 [label="Classifier <= 0.5\ngini = 0.0328\nsamples = 60\nvalue = [0, 1, 59]\nclass = High"] ;
862 -> 863 ;
864 [label="gini = 0.0\nsamples = 30\nvalue = [0, 0, 30]\nclass = High"] ;
863 -> 864 ;
865 [label="gini = 0.0644\nsamples = 30\nvalue = [0, 1, 29]\nclass = High"] ;
863 -> 865 ;
866 [label="gini = 0.0\nsamples = 180\nvalue = [0, 0, 180]\nclass = High"] ;
862 -> 866 ;
867 [label="gini = 0.0\nsamples = 960\nvalue = [0, 0, 960]\nclass = High"] ;
859 -> 867 ;
868 [label="IM <= 3.5\ngini = 0.0722\nsamples = 480\nvalue = [0, 18, 462]\nclass = High"] ;
858 -> 868 ;
869 [label="gini = 0.0\nsamples = 240\nvalue = [0, 0, 240]\nclass = High"] ;
868 -> 869 ;
870 [label="IM <= 4.5\ngini = 0.1388\nsamples = 240\nvalue = [0, 18, 222]\nclass = High"] ;
868 -> 870 ;
871 [label="Classifier <= 0.5\ngini = 0.42\nsamples = 60\nvalue = [0, 18, 42]\nclass = High"] ;
870 -> 871 ;
872 [label="gini = 0.42\nsamples = 30\nvalue = [0, 9, 21]\nclass = High"] ;
871 -> 872 ;
873 [label="gini = 0.42\nsamples = 30\nvalue = [0, 9, 21]\nclass = High"] ;
871 -> 873 ;
874 [label="gini = 0.0\nsamples = 180\nvalue = [0, 0, 180]\nclass = High"] ;
870 -> 874 ;
875 [label="Classifier <= 8.5\ngini = 0.5861\nsamples = 19200\nvalue = [1958, 8390, 8852]\nclass = High"] ;
749 -> 875 ;
876 [label="Classifier <= 3.5\ngini = 0.6033\nsamples = 13440\nvalue = [1958, 4766, 6716]\nclass = High"] ;
875 -> 876 ;
877 [label="Classifier <= 2.5\ngini = 0.4796\nsamples = 3840\nvalue = [78, 2425, 1337]\nclass = Med"] ;
876 -> 877 ;
878 [label="BD <= 7.5\ngini = 0.5381\nsamples = 1920\nvalue = [78, 909, 933]\nclass = High"] ;
877 -> 878 ;
879 [label="MDT <= 2.5\ngini = 0.1493\nsamples = 960\nvalue = [78, 882, 0]\nclass = Med"] ;
878 -> 879 ;
880 [label="MDT <= 0.5\ngini = 0.0566\nsamples = 720\nvalue = [21, 699, 0]\nclass = Med"] ;
879 -> 880 ;
881 [label="IM <= 0.5\ngini = 0.1597\nsamples = 240\nvalue = [21, 219, 0]\nclass = Med"] ;
880 -> 881 ;
882 [label="gini = 0.32\nsamples = 30\nvalue = [6, 24, 0]\nclass = Med"] ;
881 -> 882 ;
883 [label="IM <= 4.5\ngini = 0.1327\nsamples = 210\nvalue = [15, 195, 0]\nclass = Med"] ;
881 -> 883 ;
884 [label="IM <= 1.5\ngini = 0.0799\nsamples = 120\nvalue = [5, 115, 0]\nclass = Med"] ;
883 -> 884 ;
885 [label="gini = 0.18\nsamples = 30\nvalue = [3, 27, 0]\nclass = Med"] ;
884 -> 885 ;
886 [label="IM <= 2.5\ngini = 0.0435\nsamples = 90\nvalue = [2, 88, 0]\nclass = Med"] ;
884 -> 886 ;
887 [label="gini = 0.0\nsamples = 30\nvalue = [0, 30, 0]\nclass = Med"] ;
886 -> 887 ;
888 [label="IM <= 3.5\ngini = 0.0644\nsamples = 60\nvalue = [2, 58, 0]\nclass = Med"] ;
886 -> 888 ;
889 [label="gini = 0.1244\nsamples = 30\nvalue = [2, 28, 0]\nclass = Med"] ;
888 -> 889 ;
890 [label="gini = 0.0\nsamples = 30\nvalue = [0, 30, 0]\nclass = Med"] ;
888 -> 890 ;
891 [label="IM <= 6.5\ngini = 0.1975\nsamples = 90\nvalue = [10, 80, 0]\nclass = Med"] ;
883 -> 891 ;
892 [label="IM <= 5.5\ngini = 0.255\nsamples = 60\nvalue = [9, 51, 0]\nclass = Med"] ;
891 -> 892 ;
893 [label="gini = 0.18\nsamples = 30\nvalue = [3, 27, 0]\nclass = Med"] ;
892 -> 893 ;
894 [label="gini = 0.32\nsamples = 30\nvalue = [6, 24, 0]\nclass = Med"] ;
892 -> 894 ;
895 [label="gini = 0.0644\nsamples = 30\nvalue = [1, 29, 0]\nclass = Med"] ;
891 -> 895 ;
896 [label="gini = 0.0\nsamples = 480\nvalue = [0, 480, 0]\nclass = Med"] ;
880 -> 896 ;
897 [label="IM <= 2.5\ngini = 0.3622\nsamples = 240\nvalue = [57, 183, 0]\nclass = Med"] ;
879 -> 897 ;
898 [label="IM <= 1.5\ngini = 0.4286\nsamples = 90\nvalue = [28, 62, 0]\nclass = Med"] ;
897 -> 898 ;
899 [label="IM <= 0.5\ngini = 0.4061\nsamples = 60\nvalue = [17, 43, 0]\nclass = Med"] ;
898 -> 899 ;
900 [label="gini = 0.3911\nsamples = 30\nvalue = [8, 22, 0]\nclass = Med"] ;
899 -> 900 ;
901 [label="gini = 0.42\nsamples = 30\nvalue = [9, 21, 0]\nclass = Med"] ;
899 -> 901 ;
902 [label="gini = 0.4644\nsamples = 30\nvalue = [11, 19, 0]\nclass = Med"] ;
898 -> 902 ;
903 [label="IM <= 6.5\ngini = 0.3119\nsamples = 150\nvalue = [29, 121, 0]\nclass = Med"] ;
897 -> 903 ;
904 [label="IM <= 3.5\ngini = 0.2887\nsamples = 120\nvalue = [21, 99, 0]\nclass = Med"] ;
903 -> 904 ;
905 [label="gini = 0.32\nsamples = 30\nvalue = [6, 24, 0]\nclass = Med"] ;
904 -> 905 ;
906 [label="IM <= 4.5\ngini = 0.2778\nsamples = 90\nvalue = [15, 75, 0]\nclass = Med"] ;
904 -> 906 ;
907 [label="gini = 0.2778\nsamples = 30\nvalue = [5, 25, 0]\nclass = Med"] ;
906 -> 907 ;
908 [label="IM <= 5.5\ngini = 0.2778\nsamples = 60\nvalue = [10, 50, 0]\nclass = Med"] ;
906 -> 908 ;
909 [label="gini = 0.2778\nsamples = 30\nvalue = [5, 25, 0]\nclass = Med"] ;
908 -> 909 ;
910 [label="gini = 0.2778\nsamples = 30\nvalue = [5, 25, 0]\nclass = Med"] ;
908 -> 910 ;
911 [label="gini = 0.3911\nsamples = 30\nvalue = [8, 22, 0]\nclass = Med"] ;
903 -> 911 ;
912 [label="MDT <= 2.5\ngini = 0.0547\nsamples = 960\nvalue = [0, 27, 933]\nclass = High"] ;
878 -> 912 ;
913 [label="MDT <= 0.5\ngini = 0.022\nsamples = 720\nvalue = [0, 8, 712]\nclass = High"] ;
912 -> 913 ;
914 [label="IM <= 3.5\ngini = 0.0566\nsamples = 240\nvalue = [0, 7, 233]\nclass = High"] ;
913 -> 914 ;
915 [label="gini = 0.0\nsamples = 120\nvalue = [0, 0, 120]\nclass = High"] ;
914 -> 915 ;
916 [label="IM <= 4.5\ngini = 0.1099\nsamples = 120\nvalue = [0, 7, 113]\nclass = High"] ;
914 -> 916 ;
917 [label="gini = 0.3578\nsamples = 30\nvalue = [0, 7, 23]\nclass = High"] ;
916 -> 917 ;
918 [label="gini = 0.0\nsamples = 90\nvalue = [0, 0, 90]\nclass = High"] ;
916 -> 918 ;
919 [label="IM <= 0.5\ngini = 0.0042\nsamples = 480\nvalue = [0, 1, 479]\nclass = High"] ;
913 -> 919 ;
920 [label="MDT <= 1.5\ngini = 0.0328\nsamples = 60\nvalue = [0, 1, 59]\nclass = High"] ;
919 -> 920 ;
921 [label="gini = 0.0644\nsamples = 30\nvalue = [0, 1, 29]\nclass = High"] ;
920 -> 921 ;
922 [label="gini = 0.0\nsamples = 30\nvalue = [0, 0, 30]\nclass = High"] ;
920 -> 922 ;
923 [label="gini = 0.0\nsamples = 420\nvalue = [0, 0, 420]\nclass = High"] ;
919 -> 923 ;
924 [label="IM <= 3.5\ngini = 0.1458\nsamples = 240\nvalue = [0, 19, 221]\nclass = High"] ;
912 -> 924 ;
925 [label="gini = 0.0\nsamples = 120\nvalue = [0, 0, 120]\nclass = High"] ;
924 -> 925 ;
926 [label="IM <= 4.5\ngini = 0.2665\nsamples = 120\nvalue = [0, 19, 101]\nclass = High"] ;
924 -> 926 ;
927 [label="gini = 0.48\nsamples = 30\nvalue = [0, 18, 12]\nclass = Med"] ;
926 -> 927 ;
928 [label="IM <= 6.5\ngini = 0.022\nsamples = 90\nvalue = [0, 1, 89]\nclass = High"] ;
926 -> 928 ;
929 [label="gini = 0.0\nsamples = 60\nvalue = [0, 0, 60]\nclass = High"] ;
928 -> 929 ;
930 [label="gini = 0.0644\nsamples = 30\nvalue = [0, 1, 29]\nclass = High"] ;
928 -> 930 ;
931 [label="BD <= 7.5\ngini = 0.3323\nsamples = 1920\nvalue = [0, 1516, 404]\nclass = Med"] ;
877 -> 931 ;
932 [label="MDT <= 0.5\ngini = 0.4875\nsamples = 960\nvalue = [0, 556, 404]\nclass = Med"] ;
931 -> 932 ;
933 [label="IM <= 3.5\ngini = 0.4265\nsamples = 240\nvalue = [0, 74, 166]\nclass = High"] ;
932 -> 933 ;
934 [label="IM <= 1.5\ngini = 0.4499\nsamples = 120\nvalue = [0, 41, 79]\nclass = High"] ;
933 -> 934 ;
935 [label="IM <= 0.5\ngini = 0.4328\nsamples = 60\nvalue = [0, 19, 41]\nclass = High"] ;
934 -> 935 ;
936 [label="gini = 0.42\nsamples = 30\nvalue = [0, 9, 21]\nclass = High"] ;
935 -> 936 ;
937 [label="gini = 0.4444\nsamples = 30\nvalue = [0, 10, 20]\nclass = High"] ;
935 -> 937 ;
938 [label="IM <= 2.5\ngini = 0.4644\nsamples = 60\nvalue = [0, 22, 38]\nclass = High"] ;
934 -> 938 ;
939 [label="gini = 0.48\nsamples = 30\nvalue = [0, 12, 18]\nclass = High"] ;
938 -> 939 ;
940 [label="gini = 0.4444\nsamples = 30\nvalue = [0, 10, 20]\nclass = High"] ;
938 -> 940 ;
941 [label="IM <= 4.5\ngini = 0.3988\nsamples = 120\nvalue = [0, 33, 87]\nclass = High"] ;
933 -> 941 ;
942 [label="gini = 0.42\nsamples = 30\nvalue = [0, 9, 21]\nclass = High"] ;
941 -> 942 ;
943 [label="IM <= 5.5\ngini = 0.3911\nsamples = 90\nvalue = [0, 24, 66]\nclass = High"] ;
941 -> 943 ;
944 [label="gini = 0.3578\nsamples = 30\nvalue = [0, 7, 23]\nclass = High"] ;
943 -> 944 ;
945 [label="IM <= 6.5\ngini = 0.4061\nsamples = 60\nvalue = [0, 17, 43]\nclass = High"] ;
943 -> 945 ;
946 [label="gini = 0.3911\nsamples = 30\nvalue = [0, 8, 22]\nclass = High"] ;
945 -> 946 ;
947 [label="gini = 0.42\nsamples = 30\nvalue = [0, 9, 21]\nclass = High"] ;
945 -> 947 ;
948 [label="MDT <= 1.5\ngini = 0.4426\nsamples = 720\nvalue = [0, 482, 238]\nclass = Med"] ;
932 -> 948 ;
949 [label="IM <= 4.5\ngini = 0.0247\nsamples = 240\nvalue = [0, 237, 3]\nclass = Med"] ;
948 -> 949 ;
950 [label="gini = 0.0\nsamples = 150\nvalue = [0, 150, 0]\nclass = Med"] ;
949 -> 950 ;
951 [label="IM <= 5.5\ngini = 0.0644\nsamples = 90\nvalue = [0, 87, 3]\nclass = Med"] ;
949 -> 951 ;
952 [label="gini = 0.18\nsamples = 30\nvalue = [0, 27, 3]\nclass = Med"] ;
951 -> 952 ;
953 [label="gini = 0.0\nsamples = 60\nvalue = [0, 60, 0]\nclass = Med"] ;
951 -> 953 ;
954 [label="IM <= 2.5\ngini = 0.4998\nsamples = 480\nvalue = [0, 245, 235]\nclass = Med"] ;
948 -> 954 ;
955 [label="MDT <= 2.5\ngini = 0.48\nsamples = 180\nvalue = [0, 108, 72]\nclass = Med"] ;
954 -> 955 ;
956 [label="IM <= 0.5\ngini = 0.4978\nsamples = 90\nvalue = [0, 42, 48]\nclass = High"] ;
955 -> 956 ;
957 [label="gini = 0.4911\nsamples = 30\nvalue = [0, 13, 17]\nclass = High"] ;
956 -> 957 ;
958 [label="IM <= 1.5\ngini = 0.4994\nsamples = 60\nvalue = [0, 29, 31]\nclass = High"] ;
956 -> 958 ;
959 [label="gini = 0.4978\nsamples = 30\nvalue = [0, 14, 16]\nclass = High"] ;
958 -> 959 ;
960 [label="gini = 0.5\nsamples = 30\nvalue = [0, 15, 15]\nclass = Med"] ;
958 -> 960 ;
961 [label="IM <= 0.5\ngini = 0.3911\nsamples = 90\nvalue = [0, 66, 24]\nclass = Med"] ;
955 -> 961 ;
962 [label="gini = 0.4444\nsamples = 30\nvalue = [0, 20, 10]\nclass = Med"] ;
961 -> 962 ;
963 [label="IM <= 1.5\ngini = 0.3578\nsamples = 60\nvalue = [0, 46, 14]\nclass = Med"] ;
961 -> 963 ;
964 [label="gini = 0.3911\nsamples = 30\nvalue = [0, 22, 8]\nclass = Med"] ;
963 -> 964 ;
965 [label="gini = 0.32\nsamples = 30\nvalue = [0, 24, 6]\nclass = Med"] ;
963 -> 965 ;
966 [label="IM <= 4.5\ngini = 0.4962\nsamples = 300\nvalue = [0, 137, 163]\nclass = High"] ;
954 -> 966 ;
967 [label="MDT <= 2.5\ngini = 0.4599\nsamples = 120\nvalue = [0, 43, 77]\nclass = High"] ;
966 -> 967 ;
968 [label="IM <= 3.5\ngini = 0.4994\nsamples = 60\nvalue = [0, 31, 29]\nclass = Med"] ;
967 -> 968 ;
969 [label="gini = 0.48\nsamples = 30\nvalue = [0, 18, 12]\nclass = Med"] ;
968 -> 969 ;
970 [label="gini = 0.4911\nsamples = 30\nvalue = [0, 13, 17]\nclass = High"] ;
968 -> 970 ;
971 [label="IM <= 3.5\ngini = 0.32\nsamples = 60\nvalue = [0, 12, 48]\nclass = High"] ;
967 -> 971 ;
972 [label="gini = 0.0644\nsamples = 30\nvalue = [0, 1, 29]\nclass = High"] ;
971 -> 972 ;
973 [label="gini = 0.4644\nsamples = 30\nvalue = [0, 11, 19]\nclass = High"] ;
971 -> 973 ;
974 [label="IM <= 6.5\ngini = 0.499\nsamples = 180\nvalue = [0, 94, 86]\nclass = Med"] ;
966 -> 974 ;
975 [label="MDT <= 2.5\ngini = 0.4861\nsamples = 120\nvalue = [0, 70, 50]\nclass = Med"] ;
974 -> 975 ;
976 [label="IM <= 5.5\ngini = 0.4994\nsamples = 60\nvalue = [0, 31, 29]\nclass = Med"] ;
975 -> 976 ;
977 [label="gini = 0.48\nsamples = 30\nvalue = [0, 12, 18]\nclass = High"] ;
976 -> 977 ;
978 [label="gini = 0.4644\nsamples = 30\nvalue = [0, 19, 11]\nclass = Med"] ;
976 -> 978 ;
979 [label="IM <= 5.5\ngini = 0.455\nsamples = 60\nvalue = [0, 39, 21]\nclass = Med"] ;
975 -> 979 ;
980 [label="gini = 0.3911\nsamples = 30\nvalue = [0, 22, 8]\nclass = Med"] ;
979 -> 980 ;
981 [label="gini = 0.4911\nsamples = 30\nvalue = [0, 17, 13]\nclass = Med"] ;
979 -> 981 ;
982 [label="MDT <= 2.5\ngini = 0.48\nsamples = 60\nvalue = [0, 24, 36]\nclass = High"] ;
974 -> 982 ;
983 [label="gini = 0.4978\nsamples = 30\nvalue = [0, 16, 14]\nclass = Med"] ;
982 -> 983 ;
984 [label="gini = 0.3911\nsamples = 30\nvalue = [0, 8, 22]\nclass = High"] ;
982 -> 984 ;
985 [label="gini = 0.0\nsamples = 960\nvalue = [0, 960, 0]\nclass = Med"] ;
931 -> 985 ;
986 [label="Classifier <= 7.5\ngini = 0.5882\nsamples = 9600\nvalue = [1880, 2341, 5379]\nclass = High"] ;
876 -> 986 ;
987 [label="Classifier <= 5.5\ngini = 0.6377\nsamples = 7680\nvalue = [1880, 2188, 3612]\nclass = High"] ;
986 -> 987 ;
988 [label="BD <= 7.5\ngini = 0.4931\nsamples = 3840\nvalue = [956, 346, 2538]\nclass = High"] ;
987 -> 988 ;
989 [label="Classifier <= 4.5\ngini = 0.616\nsamples = 1920\nvalue = [956, 346, 618]\nclass = Low"] ;
988 -> 989 ;
990 [label="MDT <= 2.5\ngini = 0.4587\nsamples = 960\nvalue = [0, 342, 618]\nclass = High"] ;
989 -> 990 ;
991 [label="MDT <= 0.5\ngini = 0.4866\nsamples = 720\nvalue = [0, 301, 419]\nclass = High"] ;
990 -> 991 ;
992 [label="IM <= 3.5\ngini = 0.2941\nsamples = 240\nvalue = [0, 43, 197]\nclass = High"] ;
991 -> 992 ;
993 [label="IM <= 1.5\ngini = 0.2432\nsamples = 120\nvalue = [0, 17, 103]\nclass = High"] ;
992 -> 993 ;
994 [label="IM <= 0.5\ngini = 0.2994\nsamples = 60\nvalue = [0, 11, 49]\nclass = High"] ;
993 -> 994 ;
995 [label="gini = 0.32\nsamples = 30\nvalue = [0, 6, 24]\nclass = High"] ;
994 -> 995 ;
996 [label="gini = 0.2778\nsamples = 30\nvalue = [0, 5, 25]\nclass = High"] ;
994 -> 996 ;
997 [label="IM <= 2.5\ngini = 0.18\nsamples = 60\nvalue = [0, 6, 54]\nclass = High"] ;
993 -> 997 ;
998 [label="gini = 0.18\nsamples = 30\nvalue = [0, 3, 27]\nclass = High"] ;
997 -> 998 ;
999 [label="gini = 0.18\nsamples = 30\nvalue = [0, 3, 27]\nclass = High"] ;
997 -> 999 ;
1000 [label="IM <= 6.5\ngini = 0.3394\nsamples = 120\nvalue = [0, 26, 94]\nclass = High"] ;
992 -> 1000 ;
1001 [label="IM <= 5.5\ngini = 0.3805\nsamples = 90\nvalue = [0, 23, 67]\nclass = High"] ;
1000 -> 1001 ;
1002 [label="IM <= 4.5\ngini = 0.4061\nsamples = 60\nvalue = [0, 17, 43]\nclass = High"] ;
1001 -> 1002 ;
1003 [label="gini = 0.3578\nsamples = 30\nvalue = [0, 7, 23]\nclass = High"] ;
1002 -> 1003 ;
1004 [label="gini = 0.4444\nsamples = 30\nvalue = [0, 10, 20]\nclass = High"] ;
1002 -> 1004 ;
1005 [label="gini = 0.32\nsamples = 30\nvalue = [0, 6, 24]\nclass = High"] ;
1001 -> 1005 ;
1006 [label="gini = 0.18\nsamples = 30\nvalue = [0, 3, 27]\nclass = High"] ;
1000 -> 1006 ;
1007 [label="MDT <= 1.5\ngini = 0.4972\nsamples = 480\nvalue = [0, 258, 222]\nclass = Med"] ;
